tree
version=v2
num_class=1
num_tree_per_iteration=1
label_index=0
max_feature_idx=1
objective=binary sigmoid:1
feature_names=AMT_ANNUITY EXT_SOURCES_MAX
feature_infos=[2974.5:102658.5] [0.00811767578125:0.92626953125]
tree_sizes=1472 1409 1641 1487 1566 1504 1644 1499 1647 1590 1652 1590 1652 1513 1568 1516 1584 1515 1740 1590 1662 1593 1579 1593 1663 1593 1665 1599 1663 1518 1672 1598 1750 1598 1666 1604 1827 1516 1667 1603 1597 1605 1515 1682 1671 1685 1755 1690 1600 1689 1684 1606 1674 1613 1680 1692 1679 1777 1678 1543 1683 1693 1674 1784 1762 1702 1605 1541 1607 1706 1765 1620 1680 1703 1761 1710 1610 1622 1604 1622 1687 1705 1771 1701 1679 1715 1610 1707 1606 1626 1691 1708 1689 1633 1685 1627 1690 1630 1768 1796

Tree=0
num_leaves=18
num_cat=0
split_feature=0 0 0 0 0 0 0 0 0 0 0 0 0 0 0 0 0
split_gain=74.9738 34.2238 12.88 8.25979 2.9223 4.74059 3.82754 2.5308 3.14806 6.06213 3.31186 3.45385 2.0159 1.97514 1.55869 1.22811 0.45105
threshold=10309.000619445234 36871.470363269087 16285.500000000002 46113.750000000007 31178.250000000004 33385.500000000007 28969.381725520721 26048.198981569341 22596.018629990063 21363.839074215506 23854.500000000004 25081.460491016802 26886.784636708315 13513.500000000002 19176.769321451869 39762.982124779075 17788.500000000004
decision_type=2 2 2 2 2 2 2 2 2 2 2 2 2 2 2 2 2
left_child=-1 2 13 15 6 -6 7 8 9 14 -10 -12 -9 -2 16 -3 -4
right_child=1 3 4 -5 5 -7 -8 12 10 -11 11 -13 -14 -15 -16 -17 -18
leaf_value=-0.11627314919602151 -0.016437620793076833 -0.02038208485683559 0.046440289151727987 -0.055628804925710214 -0.0035041422175091531 0.04232846536612931 0.066216069628756799 0.00061106010107813552 0.08401295544069376 -0.0035313431793205421 0.023299980624633496 0.070169032911246904 0.03402918701176371 0.011942609670194596 0.03125225269560146 0.005525223579590061 0.063210008511836308
leaf_count=171 197 121 146 219 166 197 213 116 120 138 145 111 190 195 216 185 122
internal_value=0 0.0786739 0.185028 -0.381377 0.253783 0.0924553 0.292353 0.251606 0.300387 0.212822 0.444861 0.315514 0.0923285 -0.14464 0.318198 -0.168778 0.420095
internal_count=2968 2797 2272 525 1880 363 1517 1304 998 622 376 256 306 392 484 306 268
shrinkage=1


Tree=1
num_leaves=17
num_cat=0
split_feature=1 1 1 1 1 1 1 1 1 1 1 1 1 1 1 1
split_gain=571.735 83.5305 15.1153 9.31268 1.88699 1.58463 1.96928 1.50385 1.37192 1.7935 1.24011 0.939752 3.51416 0.804461 1.45121 0.135375
threshold=0.63458496410700294 0.51402664265393094 0.70403734482629099 0.56132295608692673 0.54296875000000011 0.60689534832993797 0.58168818568551084 0.72693940453868888 0.23659456999366504 0.49138381106214574 0.78051757812500011 0.43848424394644353 0.37554108728080976 0.68368468501073665 0.65649414062500011 0.31611121962482253
decision_type=2 2 2 2 2 2 2 2 2 2 2 2 2 2 2 2
left_child=1 8 13 4 -3 6 -5 -4 -1 11 -9 12 15 14 -2 -10
right_child=2 3 7 5 -6 -7 -8 10 9 -11 -12 -13 -14 -15 -16 -17
leaf_value=0.085603279523844722 -0.075590640134983289 0.031383599172136081 -0.11555577581239813 -0.008940605999520344 0.064903602236459398 -0.014263589146139842 0.023874151267648192 -0.1469623214851889 0.11221949014030311 0.084417949878611176 -0.12419476329309516 0.12057689394066223 0.084971020593944013 -0.071261900242963055 -0.10231397903663433 0.12385842621749504
leaf_count=156 153 151 169 131 123 184 165 302 157 133 174 264 216 127 195 168
internal_value=0 0.683534 -1.12765 0.171054 0.465039 0.0029872 0.0935724 -1.32748 1.03654 1.06619 -1.38751 1.10243 1.05114 -0.855415 -0.906653 1.18381
internal_count=2968 1848 1120 754 274 480 296 645 1094 938 476 805 541 475 348 325
shrinkage=0.1


Tree=2
num_leaves=20
num_cat=0
split_feature=0 0 0 0 0 0 0 0 0 0 0 0 0 0 0 0 0 0 0
split_gain=60.4993 24.2183 12.8935 7.80132 2.60505 1.9301 4.67343 2.68755 1.85081 1.80674 1.67076 8.83209 4.82915 2.61136 1.08772 0.947428 0.324521 0.0958164 0.0288085
threshold=9039.2567669180098 46113.750000000007 13513.500000000002 36720.093346110392 16285.500000000002 31347.000000000004 33385.500000000007 28969.381725520721 27362.250000000004 39132.000000000007 22513.500000000004 23753.17136045235 21363.839074215506 25432.985879161188 19009.908549058211 11558.685002433847 26325.226775814099 30135.155912009515 17562.969068316695
decision_type=2 2 2 2 2 2 2 2 2 2 2 2 2 2 2 2 2 2 2
left_child=-1 2 15 4 -4 7 -7 8 10 -5 12 -12 14 -13 18 -2 -15 -9 -6
right_child=1 -3 3 9 5 6 -8 17 -10 -11 11 13 -14 16 -16 -17 -18 -19 -20
leaf_value=-0.13814162818510747 -0.019622811024326 -0.058056539493421877 -0.0017499904722555186 -0.033982014929728938 0.037942905575930004 -0.018378175237493837 0.02967201579988045 0.040871813438926291 -0.00021526973460547487 -0.0023464611798580735 0.080574958312116751 0.0016605720401761653 -0.017603121041541207 0.025402021633638444 0.016266457298888013 -0.044586499641844843 0.040106269218805717 0.049773434790589682 0.032856648387151362
leaf_count=122 121 219 195 111 122 144 185 121 135 207 120 191 126 124 228 125 124 114 134
internal_value=0 0.059218 0.112561 0.157669 0.202691 0.22569 0.0863426 0.255468 0.219813 -0.134131 0.245461 0.324596 0.172769 0.192697 0.263705 -0.323713 0.328095 0.452674 0.353373
internal_count=2968 2846 2627 2381 2063 1868 329 1539 1304 318 1169 559 610 439 484 246 248 235 256
shrinkage=0.1


Tree=3
num_leaves=18
num_cat=0
split_feature=1 1 1 1 1 1 1 1 1 1 1 1 1 1 1 1 1
split_gain=460.481 67.8738 12.2783 7.40265 1.55155 1.2466 1.59747 1.18296 1.08326 1.69622 2.55714 2.16061 1.03838 0.678511 1.1763 0.331655 0.109175
threshold=0.63458496410700294 0.51402664265393094 0.70403734482629099 0.56132295608692673 0.54296875000000011 0.60689534832993797 0.58168818568551084 0.72693940453868888 0.26456984251308929 0.37554108728080976 0.42244554935272743 0.47751067022304355 0.78051757812500011 0.68368468501073665 0.65649414062500011 0.45130674493977446 0.32745997054989684
decision_type=2 2 2 2 2 2 2 2 2 2 2 2 2 2 2 2 2
left_child=1 8 13 4 -3 6 -5 -4 -1 16 -11 15 -9 14 -2 -12 -10
right_child=2 3 7 5 -6 -7 -8 12 9 10 11 -13 -14 -15 -16 -17 -18
leaf_value=0.079147171266824023 -0.068027722866926932 0.027764694979242645 -0.10424552428338302 -0.0082036649119369229 0.05819451485151942 -0.01268432652010908 0.021371353226427726 -0.13243064425982906 0.11435008635228189 0.066440474514092782 0.10188275339231788 0.081594307737117858 -0.11157484584583735 -0.063800763511989753 -0.092122866189438463 0.11852321699434452 0.10303521193025565
leaf_count=192 153 151 169 131 123 184 165 302 157 144 144 205 174 127 195 120 132
internal_value=0 0.614413 -1.01463 0.152327 0.41482 0.00242156 0.0828221 -1.19545 0.933754 0.963712 0.901987 0.974351 -1.24901 -0.769072 -0.81614 1.09608 1.09337
internal_count=2968 1848 1120 754 274 480 296 645 1094 902 613 469 476 475 348 264 289
shrinkage=0.1


Tree=4
num_leaves=19
num_cat=0
split_feature=0 0 0 0 0 0 0 0 0 0 0 0 0 0 0 0 0 0
split_gain=49.5623 18.701 6.78099 6.52071 1.62445 1.44693 3.24705 2.61855 1.21439 1.61966 6.81461 3.35294 2.19009 0.766041 0.752584 0.386806 0.225132 0.0197896
threshold=10309.000619445234 46113.750000000007 16285.500000000002 36871.470363269087 12657.418822566149 31178.250000000004 33385.500000000007 28969.381725520721 27362.250000000004 22513.500000000004 23753.17136045235 21363.839074215506 25432.985879161188 39762.982124779075 19009.908549058211 14068.028346605184 26325.226775814099 17562.969068316695
decision_type=2 2 2 2 2 2 2 2 2 2 2 2 2 2 2 2 2 2
left_child=-1 2 4 5 -2 7 -7 8 9 11 -11 14 -12 -5 17 -6 -14 -4
right_child=1 -3 3 13 15 6 -8 -9 -10 10 12 -13 16 -15 -16 -17 -18 -19
leaf_value=-0.1057041501445873 0.0060735199772611837 -0.050133491716011204 0.031491253731929451 -0.024061546712924087 -0.030875148638086786 -0.012097024935135064 0.026001716487561506 0.043373476397392086 0.0012787108913380097 0.071771846887014309 0.0014518688793198765 -0.014948156841579647 0.023852180564709138 -0.0035092395796264223 0.013397656585522761 -0.015370113095034693 0.036180822750470215 0.027255848352054152
leaf_count=171 122 219 122 121 112 166 197 213 135 120 191 126 124 185 228 158 124 134
internal_value=0 0.0638827 0.111677 0.155361 -0.131483 0.199681 0.0856356 0.226988 0.193132 0.214006 0.29219 0.142186 0.176233 -0.116482 0.218282 -0.218318 0.300658 0.293226
internal_count=2968 2797 2578 2186 392 1880 363 1517 1304 1169 559 610 439 306 484 270 248 256
shrinkage=0.1


Tree=5
num_leaves=18
num_cat=0
split_feature=1 1 1 1 1 1 1 1 1 1 1 1 1 1 1 1 1
split_gain=373.862 55.8774 10.2837 5.97208 1.28251 0.993056 1.29604 0.889521 1.21031 0.737986 2.83828 0.619667 0.539166 0.362868 0.81073 0.304753 0.171086
threshold=0.63458496410700294 0.51402664265393094 0.71330541897387711 0.56132295608692673 0.54296875000000011 0.60689534832993797 0.58168818568551084 0.23659456999366504 0.49003640297636408 0.43848424394644353 0.40179469916513638 0.69997734250180932 0.78051757812500011 0.68188476562500011 0.65649414062500011 0.73706054687500011 0.32745997054989684
decision_type=2 2 2 2 2 2 2 2 2 2 2 2 2 2 2 2 2
left_child=1 7 11 4 -3 6 -5 -1 9 10 16 13 15 14 -2 -4 -9
right_child=2 3 12 5 -6 -7 -8 8 -10 -11 -12 -13 -14 -15 -16 -17 -18
leaf_value=0.070051545175495583 -0.061624748241854946 0.024720775483708848 -0.10807068326341465 -0.0075763913820152406 0.052443176127483865 -0.011454157617101947 0.019089048082736128 0.099874109468687577 0.069669313053092166 0.099721559211756697 0.061259734462293304 -0.0867994648985429 -0.10121908148324908 -0.058994879118212357 -0.082042048016199631 -0.12197043063814295 0.089540103090018058
leaf_count=156 153 151 160 131 123 184 165 193 145 252 144 111 174 116 184 222 204
internal_value=0 0.554911 -0.920063 0.135669 0.37201 0.000962636 0.0727976 0.846777 0.870912 0.902588 0.85793 -0.728266 -1.11622 -0.693409 -0.728366 -1.16264 0.946618
internal_count=2968 1848 1120 754 274 480 296 1094 938 793 541 564 556 453 337 382 397
shrinkage=0.1


Tree=6
num_leaves=20
num_cat=0
split_feature=0 0 0 0 0 0 0 0 0 0 0 0 0 0 0 0 0 0 0
split_gain=41.8182 13.4761 8.76457 4.2325 1.91873 6.06501 1.6241 1.44095 1.39638 2.45245 2.59206 2.23386 2.68293 0.902617 1.86817 0.842182 0.620855 0.519292 0.0128207
threshold=9039.2567669180098 46113.750000000007 13513.500000000002 36871.470363269087 22513.500000000004 23753.17136045235 21363.839074215506 16285.500000000002 25081.460491016802 26048.198981569341 26886.784636708315 31178.250000000004 33769.956978916729 29845.800943845021 28205.305657881258 11558.685002433847 39762.982124779075 19009.908549058211 17562.969068316695
decision_type=2 2 2 2 2 2 2 2 2 2 2 2 2 2 2 2 2 2 2
left_child=-1 2 15 4 6 -6 7 -4 -7 -10 -11 13 -13 14 -12 -2 -5 18 -9
right_child=1 -3 3 16 5 8 -8 17 9 10 11 12 -14 -15 -16 -17 -18 -19 -20
leaf_value=-0.11774943553373932 -0.015277760954620273 -0.043532903503916975 -0.0025287095262709722 -0.020758026214298654 0.064286531347521866 -0.0013594079675445876 -0.012860396771916291 0.026046115195198644 0.04735653847279897 -0.012524785974734174 0.043202314150350141 -0.0078570937121845898 0.02689674244660737 0.04543462161966845 0.010284847321860455 -0.039010614534533403 -0.0021680286692525698 0.010977149033371264 0.022586869191455899
leaf_count=122 121 219 195 121 120 157 126 122 111 116 121 194 169 114 168 125 185 228 134
internal_value=0 0.0488625 0.0888033 0.126292 0.159031 0.207939 0.0817909 0.120886 0.163052 0.191056 0.155316 0.197967 0.0830626 0.301555 0.241019 -0.274289 -0.0952028 0.180109 0.242766
internal_count=2968 2846 2627 2381 2075 1270 805 679 1150 993 882 766 363 403 289 246 306 484 256
shrinkage=0.1


Tree=7
num_leaves=18
num_cat=0
split_feature=1 1 1 1 1 1 1 1 1 1 1 1 1 1 1 1 1
split_gain=304.629 46.273 8.80688 4.80202 1.05588 0.870766 0.824572 0.802749 1.02184 0.766754 1.37136 2.167 1.68355 0.550232 0.825174 0.198623 0.146649
threshold=0.63458496410700294 0.51402664265393094 0.70403734482629099 0.56132295608692673 0.54296875000000011 0.72693940453868888 0.78051757812500011 0.60689534832993797 0.58168818568551084 0.26456984251308929 0.37554108728080976 0.42244554935272743 0.47751067022304355 0.68368468501073665 0.65649414062500011 0.45130674493977446 0.32745997054989684
decision_type=2 2 2 2 2 2 2 2 2 2 2 2 2 2 2 2 2
left_child=1 9 13 4 -3 -4 -7 8 -5 -1 16 -12 15 14 -2 -13 -11
right_child=2 3 5 7 -6 6 -8 -9 -10 10 11 12 -14 -15 -16 -17 -18
leaf_value=0.065000308962421163 -0.055750745786737582 0.022016652853004623 -0.086237794570572457 -0.0067285026641149565 0.047240094762392819 -0.11097228004765697 -0.092208264106754617 -0.010396241161186813 0.01697839385734274 0.09653471955276488 0.052051037031929086 0.085505979678358393 0.066722794528228102 -0.05113162117013148 -0.076076254241615446 0.098862918554105228 0.085011607351374988
leaf_count=192 153 151 169 131 123 302 174 184 165 157 144 144 205 127 195 120 132
internal_value=0 0.502327 -0.837978 0.120896 0.333501 -0.99459 -1.04152 4.0308e-05 0.0647091 0.770564 0.796129 0.740354 0.80779 -0.629205 -0.671754 0.91682 0.914123
internal_count=2968 1848 1120 754 274 645 476 480 296 1094 902 613 469 475 348 264 289
shrinkage=0.1


Tree=8
num_leaves=20
num_cat=0
split_feature=0 0 0 0 0 0 0 0 0 0 0 0 0 0 0 0 0 0 0
split_gain=34.8559 10.084 7.24088 3.11926 2.09071 3.29232 1.40082 1.6208 1.20242 1.42606 2.26604 1.15581 1.35731 0.677277 0.649316 0.582525 0.569631 0.363615 0.169181
threshold=9039.2567669180098 46113.750000000007 13513.500000000002 36871.470363269087 22020.750000000004 23753.17136045235 20652.988980644532 18243.989141760623 25432.985879161188 31178.250000000004 33385.500000000007 28969.381725520721 27362.250000000004 16851.924250338863 11558.685002433847 19587.289095689765 40744.01284266571 15269.140341247472 26325.226775814099
decision_type=2 2 2 2 2 2 2 2 2 2 2 2 2 2 2 2 2 2 2
left_child=-1 2 14 4 6 -6 7 13 -7 11 -11 12 18 17 -2 -9 -5 -4 -10
right_child=1 -3 3 16 5 8 -8 15 9 10 -12 -13 -14 -15 -16 -17 -18 -19 -20
leaf_value=-0.10954291908210878 -0.014561691312480913 -0.037871859000284606 -0.00063987160832505111 -0.016495066302072866 0.04576310785508686 0.00048073307932142319 -0.012951222025696138 0.032768830968592851 0.021013368315027588 -0.0093230414516012102 0.022819881557080715 0.036265124797474235 0.0011854909883910725 -0.011039816662930239 -0.035539152676530662 0.012706163990893353 0.0010090978263739409 0.014653177192197005 0.031822497138427643
leaf_count=122 121 219 122 154 169 191 137 121 124 166 197 213 135 122 125 120 152 134 124
internal_value=0 0.0443169 0.0789631 0.113244 0.141533 0.190385 0.056263 0.0974204 0.15171 0.181049 0.0807033 0.242242 0.175407 0.0144462 -0.253104 0.227755 -0.0779827 0.0735352 0.264606
internal_count=2968 2846 2627 2381 2075 1319 756 619 1150 959 363 596 383 378 246 241 306 256 248
shrinkage=0.1


Tree=9
num_leaves=19
num_cat=0
split_feature=1 1 1 1 1 1 1 1 1 1 1 1 1 1 1 1 1 1
split_gain=250.022 38.4603 7.66647 3.8735 0.874497 0.644615 0.921709 0.948477 1.28242 1.5382 0.625414 0.826537 0.463821 0.446505 0.281482 0.264381 0.583773 0.122877
threshold=0.63458496410700294 0.51402664265393094 0.71330541897387711 0.56132295608692673 0.54296875000000011 0.49138381106214574 0.26943511125631764 0.32745997054989684 0.42244554935272743 0.37554108728080976 0.60689534832993797 0.58168818568551084 0.78051757812500011 0.69997734250180932 0.73706054687500011 0.68188476562500011 0.65649414062500011 0.45748458539304487
decision_type=2 2 2 2 2 2 2 2 2 2 2 2 2 2 2 2 2 2
left_child=1 5 13 4 -3 6 -1 -8 9 -9 11 -5 14 15 -4 16 -2 -10
right_child=2 3 12 10 -6 -7 7 8 17 -11 -12 -13 -14 -15 -16 -17 -18 -19
leaf_value=0.059811318697798016 -0.05056827372862345 0.019728708474245668 -0.090747256587717082 -0.0061326841974132093 0.042752534296812833 0.056634300663489151 0.091009415546201997 0.077664360427918702 0.076048013979530218 0.046731601511686351 -0.0091629694509879865 0.015217214071449657 -0.084479333009746874 -0.072098311820597782 -0.10395195981752313 -0.048258977898219521 -0.068042303506010621 0.08577390364799814
leaf_count=204 153 151 160 131 123 133 145 132 180 144 184 165 174 111 222 116 184 156
internal_value=0 0.456489 -0.767127 0.108916 0.300517 0.703849 0.722923 0.756729 0.719988 0.614296 0.000312568 0.0574708 -0.941464 -0.600853 -0.985033 -0.571143 -0.601255 0.806509
internal_count=2968 1848 1120 754 274 1094 961 757 612 276 480 296 556 564 382 453 337 336
shrinkage=0.1


Tree=10
num_leaves=20
num_cat=0
split_feature=0 0 0 0 0 0 0 0 0 0 0 0 0 0 0 0 0 0 0
split_gain=29.2938 7.94422 4.38489 2.79899 3.27141 1.90534 1.05369 2.33236 0.798784 2.8968 1.77411 0.79156 1.24852 0.872951 0.729446 0.515915 0.451187 0.385316 0.0110667
threshold=10309.000619445234 46113.750000000007 16425.000000000004 31905.000000000004 30543.945091831778 13021.810106458846 33769.956978916729 36871.470363269087 22020.750000000004 23753.17136045235 20652.988980644532 25432.985879161188 28205.305657881258 26886.784636708315 14748.750000000002 40744.01284266571 18243.989141760623 19587.289095689765 29341.562358726216
decision_type=2 2 2 2 2 2 2 2 2 2 2 2 2 2 2 2 2 2 2
left_child=-1 2 5 4 8 -2 -5 -8 10 -10 16 -11 13 -13 -7 -9 -4 -18 -14
right_child=1 -3 3 6 -6 14 7 15 9 11 -12 12 18 -15 -16 -17 17 -19 -20
leaf_value=-0.085073646178429371 0.0071415760655803894 -0.033058717060342621 0.0059761810525172246 -0.016567661048116394 0.048354213478332915 -0.032307036117754075 0.023538758556573412 -0.01469562109267583 0.041672603454657536 0.00043067073628818696 -0.012818713084404021 0.015481136409128625 0.0026745989701164696 0.037679795018119397 -0.010540763836638821 0.0020652051746667516 0.027962906748869806 0.011512717525439984 0.0055519758690149024
leaf_count=171 146 219 171 128 122 136 169 154 169 191 137 193 113 121 122 152 121 120 113
internal_value=0 0.0486093 0.0800086 0.116466 0.162056 -0.11516 -0.00179424 0.0426565 0.134844 0.172377 0.0731664 0.117088 0.157131 0.240413 -0.220333 -0.0636304 0.140399 0.197529 0.0411468
internal_count=2968 2797 2578 2174 1571 404 603 475 1449 900 549 731 540 314 258 306 412 241 226
shrinkage=0.1


Tree=11
num_leaves=19
num_cat=0
split_feature=1 1 1 1 1 1 1 1 1 1 1 1 1 1 1 1 1 1
split_gain=205.65 32.2615 6.7817 3.12839 0.725025 0.678971 1.11714 0.676037 0.691005 0.542082 0.752154 0.897649 1.1135 1.3287 0.4407 0.605782 0.0899178 0.00873905
threshold=0.63458496410700294 0.51402664265393094 0.70403734482629099 0.56132295608692673 0.54296875000000011 0.61793163429639997 0.59108523831811399 0.72436523437500011 0.78051757812500011 0.49138381106214574 0.26943511125631764 0.32745997054989684 0.42244554935272743 0.37554108728080976 0.68368468501073665 0.65649414062500011 0.45748458539304487 0.74975585937500011
decision_type=2 2 2 2 2 2 2 2 2 2 2 2 2 2 2 2 2 2
left_child=1 9 14 4 -3 6 -5 -4 17 10 -1 -12 13 -13 15 -2 -14 -9
right_child=2 3 7 5 -6 -7 -8 8 -10 -11 11 12 16 -15 -16 -17 -18 -19
leaf_value=0.054898816135170364 -0.045960373929459411 0.017599999025703944 -0.072273922617401121 0.0061398782159092797 0.038629967019285838 0.013637809710575741 -0.016075606034988945 -0.091301404194334593 -0.077511088890847513 0.051797418308507037 0.084387443917123731 0.071127506428103338 0.069826824742103305 0.042150844966314008 -0.041368906780091828 -0.063545908451145022 0.07844778302735167 -0.098822740338664047
leaf_count=204 153 151 159 196 123 112 172 170 174 133 145 132 180 144 127 195 156 142
internal_value=0 0.415344 -0.703649 0.0972448 0.270058 -0.000395954 -0.0422289 -0.845531 -0.88642 0.644728 0.662428 0.693376 0.657486 0.558389 -0.51952 -0.557972 0.739012 -0.948783
internal_count=2968 1848 1120 754 274 480 368 645 486 1094 961 757 612 276 475 348 336 312
shrinkage=0.1


Tree=12
num_leaves=20
num_cat=0
split_feature=0 0 0 0 0 0 0 0 0 0 0 0 0 0 0 0 0 0 0
split_gain=25.4811 5.92901 5.25114 2.4511 1.94836 1.10052 1.37328 1.16913 0.916708 1.39704 1.83496 0.859291 0.686845 1.62967 0.596127 0.496508 1.15777 0.249354 0.116737
threshold=9039.2567669180098 47837.896096760152 16425.000000000004 36871.470363269087 42963.750000000007 22596.018629990063 24747.750000000004 21644.050666920994 26450.846430897433 31178.250000000004 33385.500000000007 13513.500000000002 20260.505278616769 19176.769321451869 11558.685002433847 28969.381725520721 27545.981422690606 17788.500000000004 23854.500000000004
decision_type=2 2 2 2 2 2 2 2 2 2 2 2 2 2 2 2 2 2 2
left_child=-1 2 11 5 -5 7 18 12 -8 15 -11 14 13 17 -2 16 -10 -4 -7
right_child=1 -3 3 4 -6 6 8 -9 9 10 -12 -13 -14 -15 -16 -17 -18 -19 -20
leaf_value=-0.097459804941069358 -0.011830730936411743 -0.033209480561595353 0.0091759426278476414 -0.017685767041353165 0.014154482011348002 0.035852514885852699 0.0012184984335654485 -0.012793471689031166 0.030908440739250698 -0.0087539301785410067 0.020529229978228224 -0.0043230270841379771 0.023898248730782556 -0.013703258543454229 -0.032215154985637796 0.031478086039439281 0.0025727174488908394 0.022138736844456521 0.026180539160058178
leaf_count=122 121 179 134 215 131 120 206 114 132 166 197 207 120 120 125 213 113 122 111
internal_value=0 0.0373707 0.0613565 0.102781 -0.0564283 0.132311 0.167101 0.0602976 0.134908 0.165714 0.0705009 -0.140403 0.103569 0.059989 -0.223111 0.241495 0.177999 0.153471 0.311463
internal_count=2968 2846 2667 2214 346 1868 1258 610 1027 821 363 453 496 376 246 458 245 256 231
shrinkage=0.1


Tree=13
num_leaves=18
num_cat=0
split_feature=1 1 1 1 1 1 1 1 1 1 1 1 1 1 1 1 1
split_gain=169.131 27.0653 5.94421 2.57512 0.620396 0.622436 0.59427 0.540761 0.899489 0.509297 1.1186 1.69355 1.1184 0.393828 0.515344 0.331592 0.0161321
threshold=0.63458496410700294 0.51402664265393094 0.70403734482629099 0.56132295608692673 0.72436523437500011 0.78051757812500011 0.54296875000000011 0.61793163429639997 0.59108523831811399 0.47751067022304355 0.43848424394644353 0.40179469916513638 0.26943511125631764 0.68368468501073665 0.65649414062500011 0.32745997054989684 0.74975585937500011
decision_type=2 2 2 2 2 2 2 2 2 2 2 2 2 2 2 2 2
left_child=1 9 13 6 -4 16 -3 8 -5 10 11 12 -1 14 -2 -14 -6
right_child=2 3 4 7 5 -7 -8 -9 -10 -11 -12 -13 15 -15 -16 -17 -18
leaf_value=0.050381634759031714 -0.041863591778212278 0.015896678955603896 -0.066288395347887288 0.0053931126671520717 -0.084575202401844823 -0.071445378443218771 0.034999171337813807 0.012043918133242834 -0.014568412072600109 0.049472262349330165 0.075798684739386321 0.037276893972985024 0.078212085111678806 -0.03728076868439574 -0.058176810947517692 0.064162938575832773 -0.092027857452271516
leaf_count=204 153 151 159 196 170 174 123 112 172 205 192 144 145 127 195 204 142
internal_value=0 0.377877 -0.645902 0.086832 -0.781142 -0.820934 0.244207 -0.00177004 -0.0391558 0.590797 0.613063 0.573829 0.626786 -0.473069 -0.509641 0.700378 -0.881158
internal_count=2968 1848 1120 754 645 486 274 480 368 1094 889 697 553 475 348 349 312
shrinkage=0.1


Tree=14
num_leaves=19
num_cat=0
split_feature=0 0 0 0 0 0 0 0 0 0 0 0 0 0 0 0 0 0
split_gain=21.6681 4.52731 4.62472 1.82928 1.66579 1.17095 2.02289 1.45693 1.02021 1.15283 1.86847 1.11034 1.52655 0.852789 0.57598 0.497507 0.390521 0.15864
threshold=9039.2567669180098 47837.896096760152 16425.000000000004 36871.470363269087 42963.750000000007 22020.750000000004 23753.17136045235 20652.988980644532 24685.46789898472 26048.198981569341 26886.784636708315 31178.250000000004 33385.500000000007 13021.810106458846 14748.750000000002 18243.989141760623 28969.381725520721 19587.289095689765
decision_type=2 2 2 2 2 2 2 2 2 2 2 2 2 2 2 2 2 2
left_child=-1 2 13 5 -5 7 -7 15 -8 -10 -11 16 -13 -2 -15 -4 -12 -17
right_child=1 -3 3 4 -6 6 8 -9 9 10 11 12 -14 14 -16 17 -18 -19
leaf_value=-0.091856024933825983 -0.0031130369519306203 -0.029239923188827878 0.0015580101699030765 -0.015636767506750179 0.013988092428917458 0.036907391017929579 -0.006448361710202289 -0.014574291789792082 0.030647007556899898 -0.012976793551218691 0.015764436288221315 -0.0076626082747062122 0.01922217571468153 -0.030547534628703354 -0.010957477497641433 0.021597759672383681 0.028789220565565734 0.010842370740808523
leaf_count=122 195 179 171 215 131 169 111 137 157 116 190 166 197 136 122 121 213 120
internal_value=0 0.0341664 0.055194 0.0943619 -0.044086 0.120072 0.153551 0.0393185 0.122839 0.143124 0.11388 0.151164 0.0682242 -0.135418 -0.212913 0.101178 0.226374 0.162168
internal_count=2968 2846 2667 2214 346 1868 1319 549 1150 1039 882 766 363 453 258 412 403 241
shrinkage=0.1


Tree=15
num_leaves=18
num_cat=0
split_feature=1 1 1 1 1 1 1 1 1 1 1 1 1 1 1 1 1
split_gain=139.865 22.7991 5.25551 2.10223 0.521788 0.832903 0.492027 0.444934 0.959019 1.50571 0.939605 0.359074 0.316061 0.299701 0.705512 0.327472 0.268251
threshold=0.63458496410700294 0.51402664265393094 0.71330541897387711 0.56132295608692673 0.60689534832993797 0.58168818568551084 0.54296875000000011 0.47751067022304355 0.43848424394644353 0.40179469916513638 0.26943511125631764 0.78051757812500011 0.32745997054989684 0.67722752841644762 0.69659847280753595 0.66137695312500011 0.73706054687500011
decision_type=2 2 2 2 2 2 2 2 2 2 2 2 2 2 2 2 2
left_child=1 7 13 6 5 -5 -3 8 9 10 -1 16 -12 15 -15 -2 -4
right_child=2 3 11 4 -6 -7 -8 -9 -10 -11 12 -13 -14 14 -16 -17 -18
leaf_value=0.046458992858154989 -0.046392974026572407 0.014298423528395913 -0.071146134276708392 -0.0069358611793847811 -0.0086606734932000579 0.014571754051204859 0.031738711149194 0.045249236563912193 0.069986485789018074 0.033690312671300501 0.072671649841836855 -0.066031578363970958 0.058886288205641818 -0.062444200837693878 -0.040207864367360631 -0.032168255214649909 -0.084044722895084564
leaf_count=204 192 151 160 131 184 165 123 205 192 144 145 174 204 121 133 118 222
internal_value=0 0.344736 -0.594532 0.0778804 -0.00218999 0.0501799 0.220623 0.542772 0.563812 0.527294 0.577854 -0.746855 0.646311 -0.455969 -0.510237 -0.41103 -0.786692
internal_count=2968 1848 1120 754 480 296 274 1094 889 697 553 556 349 564 254 310 382
shrinkage=0.1


Tree=16
num_leaves=19
num_cat=0
split_feature=0 0 0 0 0 0 0 0 0 0 0 0 0 0 0 0 0 0
split_gain=18.5065 3.66805 2.91881 1.43204 2.65869 0.978844 1.78253 1.02592 0.836535 1.21235 0.605531 1.09628 0.550508 1.5119 2.27976 0.412865 0.368513 0.00457774
threshold=10309.000619445234 46113.750000000007 18243.989141760623 31905.000000000004 30543.945091831778 13021.810106458846 14892.339500454751 16851.924250338863 33769.956978916729 36871.470363269087 28477.11360242634 26450.846430897433 19779.83409827112 22020.750000000004 23753.17136045235 24685.46789898472 40454.176507637007 20902.91893685886
decision_type=2 2 2 2 2 2 2 2 2 2 2 2 2 2 2 2 2 2
left_child=-1 2 5 4 10 -2 -7 -8 -5 -10 11 12 -4 17 -15 -16 -11 -14
right_child=1 -3 3 8 -6 6 7 -9 9 16 -12 -13 13 14 15 -17 -18 -19
leaf_value=-0.071265443535702785 0.0076490377737948815 -0.022765453852779199 0.021272255399879345 -0.013610799579183423 0.042909099084719821 -0.030534029406729869 0.0086166442940985785 -0.016769091846969533 0.019529839676261797 -0.010239731382770161 0.00020366575021653457 0.026612485954833589 -0.0058347819569928546 0.033802183370204568 -0.006582091948330409 0.008940977948133047 0.0042459780218098439 -0.0077739988027593458
leaf_count=171 146 219 145 128 122 148 159 122 169 143 204 198 120 169 111 218 163 113
internal_value=0 0.0382017 0.0597932 0.0975776 0.134379 -0.0709143 -0.120961 -0.0232682 0.0126799 0.0531719 0.106119 0.126049 0.0940335 0.0707307 0.136015 0.0365713 -0.0249656 -0.0678753
internal_count=2968 2797 2578 2003 1400 575 429 281 603 475 1278 1074 876 731 498 329 306 233
shrinkage=0.1


Tree=17
num_leaves=18
num_cat=0
split_feature=1 1 1 1 1 1 1 1 1 1 1 1 1 1 1 1 1
split_gain=115.605 19.2324 4.83299 1.71052 0.487459 0.774553 0.465034 0.543889 0.433007 0.477959 0.407858 0.400598 0.825168 1.33488 0.813519 0.263655 0.028146
threshold=0.63458496410700294 0.51402664265393094 0.70403734482629099 0.56132295608692673 0.61793163429639997 0.59108523831811399 0.72436523437500011 0.78051757812500011 0.68368468501073665 0.65649414062500011 0.54296875000000011 0.47751067022304355 0.43848424394644353 0.40179469916513638 0.26456984251308929 0.32745997054989684 0.74975585937500011
decision_type=2 2 2 2 2 2 2 2 2 2 2 2 2 2 2 2 2
left_child=1 11 8 10 5 -5 -4 16 9 -2 -3 12 13 14 -1 -16 -8
right_child=2 3 6 4 -6 -7 7 -9 -10 -11 -12 -13 -14 -15 15 -17 -18
leaf_value=0.042221625293505871 -0.03410258427231385 0.012810720128265141 -0.056930502848900714 0.0048319047234700353 0.011366780881282236 -0.013747110854610087 -0.073205669264909415 -0.060815445018651507 -0.028516669767406286 -0.049913857597218739 0.028740988401430013 0.041270651625995219 0.064689620325372107 0.030487240946456568 0.066499688754587005 0.05404930601488659 -0.080630094616777406
leaf_count=192 153 151 159 196 112 172 170 174 127 195 123 205 192 144 157 204 142
internal_value=0 0.314468 -0.546934 0.0696121 -0.00264546 -0.038256 -0.673267 -0.709068 -0.390289 -0.428841 0.198845 0.49877 0.518933 0.484893 0.533092 0.594737 -0.767241
internal_count=2968 1848 1120 754 480 368 645 486 475 348 274 1094 889 697 553 361 312
shrinkage=0.1


Tree=18
num_leaves=21
num_cat=0
split_feature=0 0 0 0 0 0 0 0 0 0 0 0 0 0 0 0 0 0 0 0
split_gain=16.3662 3.10739 3.23532 1.13441 1.93189 1.09142 1.53664 0.829647 1.20707 0.799342 0.750413 1.03008 0.676442 1.37321 0.906305 1.31931 0.537523 0.45699 0.0320936 0.00926382
threshold=9039.2567669180098 13513.500000000002 47837.896096760152 22020.750000000004 32539.500000000004 30543.945091831778 23753.17136045235 42963.750000000007 38715.802476601319 20652.988980644532 18243.989141760623 15671.585156602405 24685.46789898472 25967.354686696282 26886.784636708315 28205.305657881258 34995.080245133453 11558.685002433847 19587.289095689765 29341.562358726216
decision_type=2 2 2 2 2 2 2 2 2 2 2 2 2 2 2 2 2 2 2 2
left_child=-1 17 3 9 5 6 -5 8 16 10 11 -3 -8 -14 -15 -16 -6 -2 -12 -17
right_child=1 2 -4 4 7 -7 12 -9 -10 -11 18 -13 13 14 15 19 -18 -19 -20 -21
leaf_value=-0.083076761039697147 -0.010309883951096291 0.011358920478823767 -0.023048823797374232 0.031090174299268244 -0.0064460574800678828 0.031167404482695945 -0.0064401048316254208 0.015288850312464564 -0.019864216682417071 -0.014239535440987404 0.015255079034674475 -0.011015666366102923 0.028982864945422068 -0.0093631136295131909 0.029103508351758609 0.0032015828727338064 0.010756271028875778 -0.028564170795497792 0.010257857942005394 0.00051867432820802326
leaf_count=122 121 146 179 169 139 166 111 131 139 137 121 232 146 127 121 113 190 125 120 113
internal_value=0 0.0293105 0.0507121 0.0703625 0.10107 0.154876 0.125831 0.00558827 -0.0359086 0.00283303 0.0349798 -0.0228376 0.0848784 0.112076 0.0571497 0.112893 0.0340891 -0.197348 0.127533 0.0187242
internal_count=2968 2846 2600 2421 1665 1066 900 599 468 756 619 378 731 620 474 347 329 246 241 226
shrinkage=0.1


Tree=19
num_leaves=19
num_cat=0
split_feature=1 1 1 1 1 1 1 1 1 1 1 1 1 1 1 1 1 1
split_gain=95.7293 10.843 8.62076 2.3992 0.788564 0.722498 0.434935 0.528996 0.368622 0.406359 0.313176 0.692527 0.746574 1.07442 0.568201 0.213436 0.0645287 0.0132242
threshold=0.60689534832993797 0.50487933502765114 0.70403734482629099 0.63458496410700294 0.56132295608692673 0.58168818568551084 0.72693940453868888 0.78051757812500011 0.68368468501073665 0.65649414062500011 0.26456984251308929 0.32745997054989684 0.42244554935272743 0.37554108728080976 0.47751067022304355 0.54296875000000011 0.45130674493977446 0.74975585937500011
decision_type=2 2 2 2 2 2 2 2 2 2 2 2 2 2 2 2 2 2
left_child=1 10 3 -2 15 -6 -4 17 9 -5 -1 -12 13 -13 16 -3 -14 -8
right_child=2 4 6 8 5 -7 7 -9 -10 -11 11 12 14 -15 -16 -17 -18 -19
leaf_value=0.038882916285209075 -0.0080646044625119085 0.01496619609012834 -0.052752528157103906 -0.031054139705050627 -0.0065858247352629422 0.013493515076860666 -0.068844845846749964 -0.056173723520073673 -0.025859403187859703 -0.045716249737832941 0.061956367073825729 0.051375472754680664 0.053986674856957219 0.024485911736390795 0.041175355260009323 0.02596354496456257 0.062389349380097769 -0.075485558570083003
leaf_count=192 184 199 169 153 131 165 160 174 127 195 157 132 144 144 157 123 120 142
internal_value=0 0.330767 -0.437148 -0.275554 0.120479 0.0456349 -0.624421 -0.661116 -0.355892 -0.391737 0.46782 0.486271 0.45693 0.369295 0.514615 0.19143 0.577808 -0.721158
internal_count=2968 1664 1304 659 618 296 645 476 475 348 1046 854 697 276 421 322 264 302
shrinkage=0.1


Tree=20
num_leaves=20
num_cat=0
split_feature=0 0 0 0 0 0 0 0 0 0 0 0 0 0 0 0 0 0 0
split_gain=14.0616 2.81247 2.74697 0.921171 0.700783 1.2525 1.0379 0.729084 0.638436 0.795963 0.67108 1.05215 0.517585 0.432549 1.24961 0.418592 0.331743 0.279785 0.77525
threshold=9039.2567669180098 16425.000000000004 46113.750000000007 13021.810106458846 35264.989841640607 22596.018629990063 37824.750000000007 17693.91185481325 24747.750000000004 26450.846430897433 31178.250000000004 32964.252129059263 42067.942714776604 21644.050666920994 20260.505278616769 19009.908549058211 14748.750000000002 28969.381725520721 27545.981422690606
decision_type=2 2 2 2 2 2 2 2 2 2 2 2 2 2 2 2 2 2 2
left_child=-1 3 4 -2 5 7 -6 -3 -7 -10 17 -12 -8 14 15 -9 -5 18 -11
right_child=1 2 -4 16 6 8 12 13 9 10 11 -13 -14 -15 -16 -17 -18 -19 -20
leaf_value=-0.078597983910679292 -0.0014690164872358531 0.016449532877523661 -0.017681707665451483 -0.027931679441728158 -0.014375793583632574 0.023829176333002969 0.016493301844677438 0.0023115219053038596 -0.00028991761188988479 0.025692488132266107 -0.0058766672030268873 0.021094622408292397 -0.0022391201271905283 -0.01326938666227483 0.019430810338995241 -0.014966012794826185 -0.012748059134485174 0.02519367165852008 0.001872794329153434
leaf_count=122 195 122 219 136 146 231 142 122 206 132 143 117 121 114 120 132 122 213 113
internal_value=0 0.0269674 0.0561484 -0.125583 0.0783733 0.0967604 -0.000345004 0.018866 0.137737 0.112945 0.146217 0.0606626 0.0784254 -0.0180908 0.0168083 -0.0679738 -0.207489 0.195197 0.146205
internal_count=2968 2846 2393 453 2174 1765 409 610 1155 924 718 260 263 488 374 254 258 458 245
shrinkage=0.1


Tree=21
num_leaves=19
num_cat=0
split_feature=1 1 1 1 1 1 1 1 1 1 1 1 1 1 1 1 1 1
split_gain=78.8854 13.6994 3.72842 1.13517 0.44464 0.66926 0.405555 0.490023 0.31986 0.349047 0.305104 0.632667 1.35572 0.736189 0.290896 0.163416 0.0658334 0.0182701
threshold=0.63458496410700294 0.51402664265393094 0.70403734482629099 0.56132295608692673 0.61793163429639997 0.59108523831811399 0.72693940453868888 0.78051757812500011 0.68368468501073665 0.65649414062500011 0.47751067022304355 0.42244554935272743 0.37554108728080976 0.26943511125631764 0.54296875000000011 0.32745997054989684 0.45130674493977446 0.74975585937500011
decision_type=2 2 2 2 2 2 2 2 2 2 2 2 2 2 2 2 2 2
left_child=1 10 8 14 5 -5 -4 17 9 -2 11 12 13 -1 -3 -15 -13 -8
right_child=2 3 6 4 -6 -7 7 -9 -10 -11 -12 16 -14 15 -16 -17 -18 -19
leaf_value=0.036142132777855794 -0.02825271475002173 0.010135425530762127 -0.048345684210238569 0.0042783218411550691 0.010759682948221451 -0.013040407906318378 -0.063954527641928702 -0.051715893699809057 -0.023345141287732969 -0.041914193829627064 0.034506592729827409 0.049318325005228647 0.02215709758583656 0.058922562560004492 0.023669667089951149 0.047294100723222966 0.057654201217100888 -0.070617582212018554
leaf_count=204 153 151 169 196 112 172 160 174 127 195 205 144 144 145 123 132 120 142
internal_value=0 0.261344 -0.462485 0.0551558 -0.00374048 -0.0378544 -0.577496 -0.613491 -0.324349 -0.357974 0.420952 0.438936 0.401263 0.457731 0.16118 0.534392 0.530616 -0.672314
internal_count=2968 1848 1120 754 480 368 645 476 475 348 1094 889 625 481 274 277 264 302
shrinkage=0.1


Tree=22
num_leaves=19
num_cat=0
split_feature=0 0 0 0 0 0 0 0 0 0 0 0 0 0 0 0 0 0
split_gain=12.124 1.91362 2.20127 1.01983 1.29311 1.01569 1.10252 0.896212 0.699564 1.35366 1.07765 1.0269 0.612865 1.45878 0.285952 0.875657 0.00637427 0.00153058
threshold=10309.000619445234 52346.250000000007 18243.989141760623 13021.810106458846 14892.339500454751 36871.470363269087 42963.750000000007 16851.924250338863 22020.750000000004 20652.988980644532 23753.17136045235 25432.985879161188 31178.250000000004 33385.500000000007 28969.381725520721 27273.254247623478 19587.289095689765 26325.226775814099
decision_type=2 2 2 2 2 2 2 2 2 2 2 2 2 2 2 2 2 2
left_child=-1 2 3 -2 -5 8 -7 -6 9 16 -10 -12 14 -14 15 17 -4 -13
right_child=1 -3 5 4 7 6 -8 -9 10 -11 11 12 13 -15 -16 -17 -18 -19
leaf_value=-0.060553445503530257 0.0079420589605794963 -0.024343034453633578 0.012493200226348752 -0.028616185525105059 0.0062648877209883994 -0.012607695717164797 0.0097167973532572283 -0.017891068907135859 0.028343471995078237 -0.015301069459701475 -0.0044029064433422733 0.02024092638536569 -0.008711381429813125 0.018238426636381363 0.023137102656140815 0.00039566819175047125 0.010079003175990199 0.022389452718359272
leaf_count=171 146 118 121 148 159 215 192 122 169 137 191 124 166 197 213 146 120 113
internal_value=0 0.0306704 0.0420544 -0.074126 -0.126076 0.0742372 -0.021913 -0.0413938 0.0971489 0.0157896 0.120252 0.0974157 0.125929 0.0571786 0.16808 0.133288 0.11293 0.213013
internal_count=2968 2797 2679 575 429 2104 407 281 1697 378 1319 1150 959 363 596 383 241 237
shrinkage=0.1


Tree=23
num_leaves=19
num_cat=0
split_feature=1 1 1 1 1 1 1 1 1 1 1 1 1 1 1 1 1 1
split_gain=65.8158 7.76765 6.34154 1.54309 0.499341 0.666816 0.357484 0.426861 0.271378 0.293111 0.215499 0.610869 0.563197 0.803885 0.419491 0.158793 0.0528631 0.035278
threshold=0.60689534832993797 0.50487933502765114 0.70403734482629099 0.63458496410700294 0.56132295608692673 0.58168818568551084 0.72436523437500011 0.78051757812500011 0.68368468501073665 0.65649414062500011 0.26456984251308929 0.32745997054989684 0.42244554935272743 0.37554108728080976 0.47751067022304355 0.54296875000000011 0.45130674493977446 0.74975585937500011
decision_type=2 2 2 2 2 2 2 2 2 2 2 2 2 2 2 2 2 2
left_child=1 10 3 -2 15 -6 -4 17 9 -5 -1 -12 13 -13 16 -3 -14 -8
right_child=2 4 6 8 5 -7 7 -9 -10 -11 11 12 14 -15 -16 -17 -18 -19
leaf_value=0.032960983451245145 -0.007455315562736882 0.011990700880136995 -0.044305225062920429 -0.025836675200905174 -0.0067764399568151241 0.012558787477136041 -0.058902256970281008 -0.04773625563301704 -0.021251957115241596 -0.03842606767677037 0.053971171522315245 0.043521263868319927 0.04567484524773878 0.019893859806380226 0.034576698866705766 0.02153097946186508 0.053305985208296242 -0.066105230064344711
leaf_count=192 184 199 159 153 131 165 170 174 127 195 157 132 144 144 157 123 120 142
internal_value=0 0.276905 -0.369407 -0.230973 0.0991101 0.0395013 -0.535726 -0.568686 -0.296492 -0.327692 0.395938 0.411641 0.383846 0.306779 0.435041 0.156014 0.490876 -0.622996
internal_count=2968 1664 1304 659 618 296 645 486 475 348 1046 854 697 276 421 322 264 312
shrinkage=0.1


Tree=24
num_leaves=20
num_cat=0
split_feature=0 0 0 0 0 0 0 0 0 0 0 0 0 0 0 0 0 0 0
split_gain=10.7681 2.36665 1.72822 1.01972 1.29736 1.09084 1.11753 0.710998 1.42553 0.706152 1.15797 0.657458 0.624762 0.759188 0.459306 1.09551 0.599783 0.402948 0.33734
threshold=9039.2567669180098 13513.500000000002 52346.250000000007 22020.750000000004 32539.500000000004 30543.945091831778 23753.17136045235 24685.46789898472 25967.354686696282 26886.784636708315 28477.11360242634 20652.988980644532 19467.584650778004 15671.585156602405 42963.750000000007 38715.802476601319 34995.080245133453 18094.500000000004 11558.685002433847
decision_type=2 2 2 2 2 2 2 2 2 2 2 2 2 2 2 2 2 2 2
left_child=-1 18 3 11 5 6 -5 -8 -9 -10 -11 12 13 -3 15 16 -6 -15 -2
right_child=1 2 -4 4 14 -7 7 8 9 10 -12 -13 -14 17 -16 -17 -18 -19 -20
leaf_value=-0.071262620259476467 -0.0095575139771861065 0.010964264696023135 -0.022009066630100903 0.026169126854487908 -0.006574641056812886 0.028912536356113922 -0.0091197002997254247 0.027734231488043923 -0.0099596309479339177 0.023480287682678937 -0.0016870542269833714 -0.014592748586221227 0.014877887434392265 -0.012698292660084716 0.009732999122332912 -0.018575524662556932 0.011954584256437634 0.0028547335526193703 -0.025582556073160991
leaf_count=122 121 146 118 169 139 166 111 146 127 143 204 137 132 220 192 139 190 121 125
internal_value=0 0.0233752 0.0424092 0.0541081 0.0829875 0.12928 0.0996741 0.0642762 0.092772 0.0357384 0.0860234 -0.011461 0.0182078 -0.0172094 0.00801287 -0.0279742 0.0401344 -0.0734408 -0.178646
internal_count=2968 2846 2600 2482 1726 1066 900 731 620 474 347 756 619 487 660 468 329 341 246
shrinkage=0.1


Tree=25
num_leaves=19
num_cat=0
split_feature=1 1 1 1 1 1 1 1 1 1 1 1 1 1 1 1 1 1
split_gain=54.5915 6.56012 5.48623 1.27557 0.413242 0.520748 0.330502 0.391357 0.233042 0.248754 0.228707 1.07512 0.711298 0.423961 0.219327 0.12763 0.102951 0.0342481
threshold=0.60689534832993797 0.50487933502765114 0.70403734482629099 0.63458496410700294 0.56132295608692673 0.58168818568551084 0.72436523437500011 0.78051757812500011 0.68368468501073665 0.65649414062500011 0.40179469916513638 0.43848424394644353 0.34355467831179459 0.47751067022304355 0.21550030034804041 0.54296875000000011 0.29377385683837437 0.74975585937500011
decision_type=2 2 2 2 2 2 2 2 2 2 2 2 2 2 2 2 2 2
left_child=1 10 3 -2 15 -6 -4 17 9 -5 12 -12 14 -13 -1 -3 -16 -8
right_child=2 4 6 8 5 -7 7 -9 -10 -11 11 13 -14 -15 16 -17 -18 -19
leaf_value=0.041300756967075199 -0.0068435047188635124 0.010956706871088649 -0.040702451698099947 -0.023580512465398433 -0.0059072530296625965 0.011201380714662404 -0.054860394363398547 -0.044072819442810961 -0.01927105860088258 -0.035236557006676661 0.017390433215538108 0.047158846803779492 0.051609305620616733 0.031359315092072793 0.025779383181142968 0.019538414788972586 0.035205249211123495 -0.061873353565794501
leaf_count=132 184 199 159 153 131 165 170 174 127 195 144 192 168 157 133 123 120 142
internal_value=0 0.253348 -0.339358 -0.210696 0.0900382 0.0357723 -0.496578 -0.52874 -0.270714 -0.299821 0.36407 0.328482 0.395471 0.397126 0.342648 0.141978 0.301402 -0.581624
internal_count=2968 1664 1304 659 618 296 645 486 475 348 1046 493 553 349 385 322 253 312
shrinkage=0.1


Tree=26
num_leaves=20
num_cat=0
split_feature=0 0 0 0 0 0 0 0 0 0 0 0 0 0 0 0 0 0 0
split_gain=9.26484 2.19048 1.52562 0.917663 0.616063 1.05552 0.672459 0.648448 0.873323 1.11073 0.347452 0.839561 0.655714 0.38538 0.33295 1.04098 0.315145 0.253538 0.192692
threshold=9039.2567669180098 16425.000000000004 49353.148461917364 13021.810106458846 22596.018629990063 31178.250000000004 17693.91185481325 33385.500000000007 36871.470363269087 42963.750000000007 28969.381725520721 26184.112808992493 25081.460491016802 27016.230959844837 20260.505278616769 21644.050666920994 19009.908549058211 23854.500000000004 14748.750000000002
decision_type=2 2 2 2 2 2 2 2 2 2 2 2 2 2 2 2 2 2 2
left_child=-1 3 4 -2 6 10 -3 -7 -9 -10 11 12 17 -13 16 -16 -8 -6 -5
right_child=1 2 -4 18 5 7 14 8 9 -11 -12 13 -14 -15 15 -17 -18 -19 -20
leaf_value=-0.067293026707656425 -0.00025493355850020322 0.014535715238940684 -0.016453924270923209 -0.025445284225555722 0.018814350276855876 -0.0093106227381577391 -0.00065391640421306866 0.017477707932126288 -0.010326613787737079 0.013793262523607717 0.021046563550252667 -0.0074286931050671634 0.029682413029731864 0.0086679074483190562 0.016552137569011853 -0.012318830003902922 -0.015942385321710845 0.005194591468556377 -0.013632636580100636
leaf_count=122 195 122 159 136 120 166 122 197 215 151 213 116 133 168 120 114 132 145 122
internal_value=0 0.0215412 0.0478186 -0.11553 0.0618886 0.083826 0.00321249 0.0231283 0.0585516 -0.00371629 0.133757 0.1099 0.174417 0.0207238 -0.0330538 0.0258995 -0.0873544 0.110848 -0.198554
internal_count=2968 2846 2393 453 2234 1624 610 729 563 366 895 682 398 284 488 234 254 265 258
shrinkage=0.1


Tree=27
num_leaves=19
num_cat=0
split_feature=1 1 1 1 1 1 1 1 1 1 1 1 1 1 1 1 1 1
split_gain=45.1132 5.58222 4.71604 1.0564 1.58111 0.488446 0.617931 0.375493 0.301114 0.767167 0.588902 0.546754 0.29932 0.351321 0.193505 0.0814894 0.0737379 0.0346324
threshold=0.60689534832993797 0.51402664265393094 0.70403734482629099 0.64997266840337231 0.62391874375871692 0.55171362021369363 0.57397460937500011 0.68368468501073665 0.40179469916513638 0.43848424394644353 0.34355467831179459 0.47751067022304355 0.72436523437500011 0.78051757812500011 0.21550030034804041 0.66625976562500011 0.29377385683837437 0.74975585937500011
decision_type=2 2 2 2 2 2 2 2 2 2 2 2 2 2 2 2 2 2
left_child=1 8 3 4 -2 -3 -7 15 10 -10 14 -11 -4 17 -1 -5 -16 -14
right_child=2 5 12 7 -6 6 -8 -9 9 11 -12 -13 13 -15 16 -17 -18 -19
leaf_value=0.038347586412439197 -0.02772276197574319 -0.00073260971214052098 -0.037353426427037685 -0.035468233296217191 0.0035634641720974462 0.022301128219814916 0.0048566328148276373 -0.017367225787542837 0.015689608767147988 0.043403010146640664 0.047647195703252494 0.026624161905471316 -0.050884706245355439 -0.040634153235270275 0.024064723445071309 -0.027222958901116697 0.032163481401371721 -0.057786841195708399
leaf_count=132 117 214 159 132 164 141 215 127 144 192 168 205 170 174 133 119 120 142
internal_value=0 0.231297 -0.311126 -0.191923 -0.0973816 0.0709739 0.117012 -0.267372 0.328332 0.290619 0.365299 0.342586 -0.459215 -0.490291 0.317017 -0.316652 0.278008 -0.541275
internal_count=2968 1664 1304 659 281 570 356 378 1094 541 553 397 645 486 385 251 253 312
shrinkage=0.1


Tree=28
num_leaves=20
num_cat=0
split_feature=0 0 0 0 0 0 0 0 0 0 0 0 0 0 0 0 0 0 0
split_gain=8.12393 1.21424 1.61995 0.881256 1.64902 0.799698 0.90639 0.614171 0.637979 0.556559 0.53415 0.495561 1.14083 0.432038 1.66772 1.14941 0.226529 0.18983 0.0242351
threshold=11054.250000000002 22020.750000000004 38715.802476601319 13444.979034664631 14892.339500454751 23753.17136045235 25432.985879161188 20652.988980644532 19467.584650778004 16944.629049071762 27273.254247623478 52346.250000000007 42963.750000000007 30543.945091831778 31905.000000000004 33769.956978916729 36292.333591769151 29214.924869956052 26325.226775814099
decision_type=2 2 2 2 2 2 2 2 2 2 2 2 2 2 2 2 2 2 2
left_child=-1 3 5 -2 -5 -3 -7 8 9 -6 18 12 -4 17 -15 -16 -17 -12 -8
right_child=1 2 11 4 7 6 10 -9 -10 -11 13 -13 -14 14 15 16 -18 -19 -20
leaf_value=-0.045727094258610511 0.012520966836867759 0.024127628047373305 -0.015953072384297287 -0.02915585298116127 0.0060299318360467445 -0.0057721869935723905 0.017097974495631173 -0.014976444941966758 0.014354043830013119 -0.0104405034279386 0.0057418776267786943 -0.018071810810143783 0.0097933068484806259 0.033740334016904211 -0.011992448500251961 0.019424592484675082 0.0060729329203689352 -0.0052476773110855133 0.021797155090258029
leaf_count=207 134 169 139 124 171 191 124 137 132 219 179 118 192 122 128 132 113 124 113
internal_value=0 0.0282672 0.0606009 -0.0360498 -0.0639974 0.096896 0.0780921 -0.0204776 0.0134585 -0.0307216 0.103608 -0.0542414 -0.0122563 0.0765918 0.116315 0.0441901 0.132672 0.0123919 0.193697
internal_count=2968 2761 1844 917 783 1395 1226 659 522 390 1035 449 331 798 495 373 245 303 237
shrinkage=0.1


Tree=29
num_leaves=18
num_cat=0
split_feature=1 1 1 1 1 1 1 1 1 1 1 1 1 1 1 1 1
split_gain=37.809 7.05571 2.08385 0.575724 0.497411 0.477008 0.283289 0.651984 0.486767 0.470215 0.31141 0.263317 0.326065 0.221178 0.561319 0.157043 0.0458453
threshold=0.63458496410700294 0.51402664265393094 0.70403734482629099 0.56132295608692673 0.61793163429639997 0.59108523831811399 0.40179469916513638 0.43848424394644353 0.26456984251308929 0.47751067022304355 0.32745997054989684 0.72436523437500011 0.78051757812500011 0.65772653661364255 0.67722752841644762 0.54296875000000011 0.75498459996151546
decision_type=2 2 2 2 2 2 2 2 2 2 2 2 2 2 2 2 2
left_child=1 6 13 15 5 -5 8 -8 -1 -9 -10 -4 16 -2 -15 -3 -13
right_child=2 3 11 4 -6 -7 7 9 10 -11 -12 12 -14 14 -16 -17 -18
leaf_value=0.025114339113541578 -0.029222977711603322 0.0067753312494793425 -0.034430877373721878 0.0025501744242990231 0.011165628208454683 -0.012154875248268412 0.014236139799470422 0.040026752749062471 0.046862526457429519 0.024338674096508209 0.03304319304909778 -0.053157895318297281 -0.037338622556519367 -0.0093653877735581856 -0.027847733585517037 0.016821220121504353 -0.045510784443257513
leaf_count=192 165 151 159 196 112 172 144 192 157 205 204 197 174 145 165 123 115
internal_value=0 0.182873 -0.333391 0.0354623 -0.00657368 -0.0428899 0.302648 0.265903 0.338724 0.31434 0.389851 -0.42511 -0.454713 -0.229591 -0.194557 0.111846 -0.50458
internal_count=2968 1848 1120 754 480 368 1094 541 553 397 361 645 486 475 310 274 312
shrinkage=0.1


Tree=30
num_leaves=20
num_cat=0
split_feature=0 0 0 0 0 0 0 0 0 0 0 0 0 0 0 0 0 0 0
split_gain=7.23404 1.83397 1.16831 0.482815 1.12894 0.379108 0.936164 0.763548 0.68458 0.96317 0.750165 0.803109 0.687707 0.508874 0.372258 0.34997 0.179336 0.326272 0.00352683
threshold=9039.2567669180098 18243.989141760623 46113.750000000007 13513.500000000002 15671.585156602405 22020.750000000004 20652.988980644532 23753.17136045235 24685.46789898472 25967.354686696282 26886.784636708315 31178.250000000004 33385.500000000007 36871.470363269087 40454.176507637007 11558.685002433847 28205.305657881258 29341.562358726216 19587.289095689765
decision_type=2 2 2 2 2 2 2 2 2 2 2 2 2 2 2 2 2 2 2
left_child=-1 3 5 15 -5 6 18 -7 -9 -10 -11 16 -13 -14 -15 -2 -12 -18 -3
right_child=1 2 -4 4 -6 7 -8 8 9 10 11 12 13 14 -16 -17 17 -19 -20
leaf_value=-0.061218102504217026 -0.0074826204613338797 0.009403883905759693 -0.010844085568975158 0.011009906068744815 -0.013148716457058269 0.022245506881086091 -0.014154565011530696 -0.0098016852852838565 0.024408854960625576 -0.0099897729872933019 0.022429255180622137 -0.0089374245030612899 0.015748794625887366 -0.0065870139338420862 0.0085793196670803148 -0.024074170446317714 0.0033575199002002969 0.018465991179513128 0.0075602058525410026
leaf_count=122 121 121 219 146 232 169 137 111 146 127 121 166 197 143 163 125 113 169 120
internal_value=0 0.01891 0.0485761 -0.0849836 -0.0368783 0.0646431 0.00196858 0.0790482 0.0634258 0.0771762 0.0568226 0.0757087 0.0297722 0.070394 0.0152064 -0.161011 0.153105 0.122712 0.0848739
internal_count=2968 2846 2222 624 378 2003 378 1625 1456 1345 1199 1072 669 503 306 246 403 282 241
shrinkage=0.1


Tree=31
num_leaves=19
num_cat=0
split_feature=1 1 1 1 1 1 1 1 1 1 1 1 1 1 1 1 1 1
split_gain=31.4283 4.00636 3.42958 0.762859 0.300781 0.514871 0.437615 0.236877 0.305129 0.22304 0.195153 0.183402 0.670315 0.487049 0.259878 0.221377 0.0530572 0.0408155
threshold=0.60689534832993797 0.50487933502765114 0.70403734482629099 0.63458496410700294 0.55171362021369363 0.53370787637357753 0.57397460937500011 0.72693940453868888 0.78051757812500011 0.68368468501073665 0.65649414062500011 0.40179469916513638 0.43848424394644353 0.34355467831179459 0.47751067022304355 0.21550030034804041 0.75498459996151546 0.29377385683837437
decision_type=2 2 2 2 2 2 2 2 2 2 2 2 2 2 2 2 2 2
left_child=1 11 3 -2 5 -3 -6 -4 16 10 -5 13 -13 15 -14 -1 -9 -17
right_child=2 4 7 9 6 -7 -8 8 -10 -11 -12 12 14 -15 -16 17 -18 -19
leaf_value=0.033939719983519405 -0.0051935030506929459 0.0093921055361173879 -0.031972605120220515 -0.018131092344511331 0.019516297380875864 -0.0092086068222529214 0.004785026006870796 -0.050358749831245844 -0.034481624617319732 -0.013281913629464084 -0.028553880738378862 0.012894385459114144 0.036859482846843865 0.041560996392784072 0.024179366928474354 0.019789581590093034 -0.042290425849548091 0.025970424162039485
leaf_count=132 184 148 169 153 141 114 215 187 174 127 195 144 192 168 157 133 115 120
internal_value=0 0.194579 -0.263559 -0.162142 0.0671373 0.0131657 0.105537 -0.393552 -0.423266 -0.209435 -0.23823 0.283949 0.25167 0.312597 0.307866 0.268295 -0.473804 0.226249
internal_count=2968 1664 1304 659 618 262 356 645 476 475 348 1046 493 553 349 385 302 253
shrinkage=0.1


Tree=32
num_leaves=21
num_cat=0
split_feature=0 0 0 0 0 0 0 0 0 0 0 0 0 0 0 0 0 0 0 0
split_gain=6.22853 1.72634 1.07854 0.522865 1.47925 0.500539 0.653951 0.40634 0.992497 0.457336 0.624752 0.54306 0.558477 0.83325 0.310225 0.802232 0.282172 0.263439 0.0417394 0.0376311
threshold=9039.2567669180098 20260.505278616769 42067.942714776604 37824.750000000007 35264.989841640607 13513.500000000002 15671.585156602405 30543.945091831778 31905.000000000004 28477.11360242634 26450.846430897433 24747.750000000004 22596.018629990063 21644.050666920994 19009.908549058211 17169.34285543059 11558.685002433847 52346.250000000007 23854.500000000004 45641.011925870553
decision_type=2 2 2 2 2 2 2 2 2 2 2 2 2 2 2 2 2 2 2 2
left_child=-1 5 3 4 7 16 -7 9 -9 10 11 12 13 -3 15 -8 -2 19 -14 -4
right_child=1 2 17 -5 -6 6 14 8 -10 -11 -12 -13 18 -15 -16 -17 -18 -19 -20 -21
leaf_value=-0.057681760708847056 -0.0072252054508339008 0.014760600268527688 -0.0046534693058778919 0.020132470068015777 -0.014697177617925123 0.0092330052049372432 -0.014984726095869864 0.031038205967079381 0.0057110306877274 -0.0027853093874036969 0.019498504663434672 -0.003876369756199774 0.014219730192313193 -0.011509710652615558 -0.016297862138229445 0.0075046631416177678 -0.022204719088740124 -0.015084295078230123 0.020373958001958983 0.0010865516150867958
leaf_count=122 121 120 111 142 146 146 147 122 194 204 198 206 120 114 132 158 125 118 111 111
internal_value=0 0.0174573 0.0523674 0.0749008 0.0629837 -0.0664972 -0.0318523 0.0851159 0.154354 0.0646742 0.0868897 0.0546079 0.0966518 0.0208429 -0.0748171 -0.036084 -0.150089 -0.0626414 0.173966 -0.0188043
internal_count=2968 2846 2017 1677 1535 829 583 1389 316 1073 869 671 465 234 437 305 246 340 231 222
shrinkage=0.1


Tree=33
num_leaves=19
num_cat=0
split_feature=1 1 1 1 1 1 1 1 1 1 1 1 1 1 1 1 1 1
split_gain=25.7802 3.36891 2.91127 0.630616 1.42866 0.319949 0.318062 0.59447 0.221425 0.229121 0.465792 0.17852 0.565081 0.41282 0.380759 0.224205 0.0777518 0.0621094
threshold=0.60689534832993797 0.50487933502765114 0.70403734482629099 0.64997266840337231 0.62391874375871692 0.68368468501073665 0.56132295608692673 0.58168818568551084 0.79882812500000011 0.75498459996151546 0.72693940453868888 0.40179469916513638 0.43848424394644353 0.26456984251308929 0.32745997054989684 0.47481624889381796 0.54296875000000011 0.66625976562500011
decision_type=2 2 2 2 2 2 2 2 2 2 2 2 2 2 2 2 2 2
left_child=1 11 3 4 -2 17 16 -8 9 10 -4 13 -13 -1 -15 -14 -3 -5
right_child=2 6 8 5 -6 -7 7 -9 -10 -11 -12 12 15 14 -16 -17 -18 -19
leaf_value=0.020687356953359243 -0.024556174697530998 0.0080739202328030443 -0.029096697582917525 -0.028598338687946243 0.0053334500024543423 -0.011942131824863551 -0.0089166348153773174 0.0094405646840590024 -0.045915343402211706 -0.026565914333082693 -0.046685225012748369 0.01148264794080568 0.034053412885519239 0.042399274041783272 0.026991578930490485 0.022190303531082811 0.014830656048526535 -0.021363645055893728
leaf_count=192 117 199 169 132 164 127 131 165 112 177 187 144 180 157 204 169 123 119
internal_value=0 0.176824 -0.240414 -0.147081 -0.0738916 -0.206369 0.0601054 0.012408 -0.361838 -0.340047 -0.375091 0.259618 0.227673 0.288016 0.336084 0.279865 0.106155 -0.252554
internal_count=2968 1664 1304 659 281 378 618 296 645 533 356 1046 493 553 361 349 322 251
shrinkage=0.1


Tree=34
num_leaves=20
num_cat=0
split_feature=0 0 0 0 0 0 0 0 0 0 0 0 0 0 0 0 0 0 0
split_gain=5.54079 1.04301 1.22894 1.41596 0.899557 0.682633 1.04343 0.507234 0.459166 0.207715 1.1524 0.404523 0.751572 0.939163 0.252668 0.533045 0.132019 0.0811209 0.00324651
threshold=11054.250000000002 20260.505278616769 13444.979034664631 14892.339500454751 38715.802476601319 42963.750000000007 47837.896096760152 16944.629049071762 18336.529831544602 33385.500000000007 31581.843002142454 25432.985879161188 23753.17136045235 22513.500000000004 27273.254247623478 28969.381725520721 35633.405015311851 30264.98705880823 26325.226775814099
decision_type=2 2 2 2 2 2 2 2 2 2 2 2 2 2 2 2 2 2 2
left_child=-1 2 -2 -4 9 -6 -7 -5 -9 10 11 12 13 -3 18 -16 -11 -17 -13
right_child=1 4 3 7 5 6 -8 8 -10 16 -12 14 -14 -15 15 17 -18 -19 -20
leaf_value=-0.038926879781063593 0.014258030855790367 0.0019901934607038439 -0.02969602523005992 0.0059899456037164015 -0.016389292405844101 0.016585872694209792 -0.0096088531695883439 -0.019231310434336471 -0.001983669761882518 0.018774225769897835 -0.013592442141907116 0.016732570499868742 -0.0069139657922705827 0.026920646866147136 -0.001753345739657272 0.018678986027649471 0.0088241976295546573 0.010719445290420571 0.019019137792336847
leaf_count=207 134 222 124 171 139 131 179 123 192 116 122 124 191 120 146 132 157 125 113
internal_value=0 0.0233754 -0.0466747 -0.0886365 0.0496517 -0.0383971 0.0216232 -0.0349076 -0.0879539 0.0744392 0.0628143 0.0845674 0.0391298 0.103281 0.121693 0.0878362 0.130226 0.14877 0.178546
internal_count=2968 2761 744 610 2017 449 310 486 315 1568 1295 1173 533 342 640 403 273 257 237
shrinkage=0.1


Tree=35
num_leaves=19
num_cat=0
split_feature=1 1 1 1 1 1 1 1 1 1 1 1 1 1 1 1 1 1
split_gain=21.7535 4.20808 1.31675 0.358066 0.494962 0.309473 0.751457 0.68712 0.259717 0.211988 0.410588 0.4081 0.274683 0.246706 0.111107 0.105535 0.0330142 0.0237791
threshold=0.63458496410700294 0.51402664265393094 0.72210995722543136 0.56132295608692673 0.60157379422516633 0.70801858907127546 0.67722752841644762 0.65772653661364255 0.78051757812500011 0.40179469916513638 0.34355467831179459 0.43848424394644353 0.47751067022304355 0.21550030034804041 0.74975585937500011 0.54296875000000011 0.57941752701435523 0.29377385683837437
decision_type=2 2 2 2 2 2 2 2 2 2 2 2 2 2 2 2 2 2
left_child=1 9 5 15 16 6 7 -2 14 10 13 -11 -13 -1 -4 -3 -5 -15
right_child=2 3 8 4 -6 -7 -8 -9 -10 11 -12 12 -14 17 -16 -17 -18 -19
leaf_value=0.030095968623486159 -0.024312339199626425 0.0050566371637322093 -0.035844153901092767 -0.0092182298279471966 0.0064483224616302603 -0.0086064378504707179 -0.032200736800304441 -0.0037348150262487088 -0.028472746353493346 0.01043395569619562 0.036284756470911741 0.031021497902484159 0.018753064066516077 0.015889078878005069 -0.045950951083158012 0.013341282155125658 -0.0045791549870902197 0.020700935911769684
leaf_count=132 165 151 180 118 220 113 201 145 174 144 168 192 205 133 142 123 142 120
internal_value=0 0.139675 -0.259181 0.0261303 -0.00707676 -0.196235 -0.218071 -0.150663 -0.359007 0.234802 0.266661 0.202617 0.242078 0.225676 -0.403891 0.0867849 -0.0671946 0.180871
internal_count=2968 1848 1120 754 480 624 511 310 496 1094 553 541 397 385 322 274 260 253
shrinkage=0.1


Tree=36
num_leaves=22
num_cat=0
split_feature=0 0 0 0 0 0 0 0 0 0 0 0 0 0 0 0 0 0 0 0 0
split_gain=4.87177 1.43949 1.067 0.624063 0.446243 0.725027 0.602512 0.674448 0.994091 0.641619 0.751567 0.832734 1.12944 0.470786 0.759846 0.427246 0.417619 0.407159 0.990969 0.0881977 0.046773
threshold=9039.2567669180098 16425.000000000004 13021.810106458846 52346.250000000007 22020.750000000004 20652.988980644532 23753.17136045235 24685.46789898472 25967.354686696282 26886.784636708315 29604.629148247575 30727.154539620857 32539.500000000004 37824.750000000007 42067.942714776604 28343.563936500777 35264.989841640607 19467.584650778004 17693.91185481325 14411.023906680603 45641.011925870553
decision_type=2 2 2 2 2 2 2 2 2 2 2 2 2 2 2 2 2 2 2 2 2
left_child=-1 2 -2 4 5 17 -6 -8 -9 -10 15 -12 -13 16 -15 -11 -14 18 -3 -4 -16
right_child=1 3 19 -5 6 -7 7 8 9 10 11 12 13 14 20 -17 -18 -19 -20 -21 -22
leaf_value=-0.052286832365351213 0.0026631362770542797 0.013562932832013347 -0.014231721418882445 -0.012693194155711804 0.019274189693813379 -0.014931395900378862 -0.011311514626334779 0.02350780163165278 -0.010454667767968308 0.0075573565602659589 -0.0146694140744556 0.023213744376814501 0.0032455656809153529 0.019402436202339737 -0.004391411365698681 0.025681428428657085 -0.013384745366968438 0.013753851950052479 -0.012961374763303449 -0.022550200089955817 0.0020605767511122346
leaf_count=122 195 122 112 118 169 137 111 146 127 132 113 144 150 142 111 124 146 132 158 146 111
internal_value=0 0.0153618 -0.0983789 0.037238 0.0450662 -0.00999538 0.0625626 0.0493735 0.0623604 0.0428771 0.0592318 0.0295983 0.0548062 0.0159238 0.0692301 0.165253 -0.0496924 0.0365317 -0.0115145 -0.189794 -0.0127451
internal_count=2968 2846 453 2393 2275 549 1726 1557 1446 1300 1173 917 804 660 364 256 296 412 280 258 222
shrinkage=0.1


Tree=37
num_leaves=18
num_cat=0
split_feature=1 1 1 1 1 1 1 1 1 1 1 1 1 1 1 1 1
split_gain=18.0834 2.37932 2.15835 0.515316 0.419376 0.41139 0.236861 0.221921 1.05033 0.639786 0.452765 0.289394 0.18629 0.231593 0.343097 0.163669 0.128323
threshold=0.60689534832993797 0.51402664265393094 0.70403734482629099 0.55171362021369363 0.58705060001504517 0.63458496410700294 0.68368468501073665 0.37554108728080976 0.42244554935272743 0.44747703010368961 0.26456984251308929 0.32745997054989684 0.79882812500000011 0.75498459996151546 0.72693940453868888 0.65649414062500011 0.48628007176390725
decision_type=2 2 2 2 2 2 2 2 2 2 2 2 2 2 2 2 2
left_child=1 7 5 -3 -5 -2 15 10 -9 -10 -1 -12 13 14 -4 -7 -11
right_child=2 3 12 4 -6 6 -8 8 9 16 11 -13 -14 -15 -16 -17 -18
leaf_value=0.017189989670569544 -0.0042483731720792924 -0.003630454513233078 -0.025364071851821181 0.014427015964593443 -0.00035450489585629285 -0.013647560012804497 -0.007946108800571906 0.0023443731976456098 0.038425064142221133 0.014338901378980605 0.038461445784723026 0.02313978445972862 -0.040144367185410923 -0.02149466014576841 -0.040737906704696153 -0.023259904154361122 0.023265420909751078
leaf_count=192 184 214 169 232 124 153 127 144 120 180 157 132 112 177 187 195 169
internal_value=0 0.149106 -0.203707 0.04471 0.0922962 -0.123482 -0.158776 0.215558 0.186743 0.240843 0.253079 0.315254 -0.310677 -0.290468 -0.326118 -0.188721 0.190336
internal_count=2968 1664 1304 570 356 659 475 1094 613 469 481 289 645 533 356 348 349
shrinkage=0.1


Tree=38
num_leaves=20
num_cat=0
split_feature=0 0 0 0 0 0 0 0 0 0 0 0 0 0 0 0 0 0 0
split_gain=4.34995 0.89252 0.957608 1.07411 0.69229 0.75677 0.854879 0.534404 0.316337 0.269077 1.04313 0.37545 0.491471 0.766065 0.439255 0.400429 0.230298 0.179245 0.0947619
threshold=11054.250000000002 20260.505278616769 13444.979034664631 14892.339500454751 38715.802476601319 42963.750000000007 47837.896096760152 18869.243188571167 16574.120012131396 33385.500000000007 31581.843002142454 23945.612293999726 26184.112808992493 28002.022679262747 21644.050666920994 29604.629148247575 25081.460491016802 22596.018629990063 36292.333591769151
decision_type=2 2 2 2 2 2 2 2 2 2 2 2 2 2 2 2 2 2 2
left_child=-1 2 -2 -4 9 -6 -7 8 -5 10 11 14 16 -14 -3 -15 -13 -16 -11
right_child=1 4 3 7 5 6 -8 -9 -10 18 -12 12 13 15 17 -17 -18 -19 -20
leaf_value=-0.035062675582759543 0.012371571736926412 0.012353255229835013 -0.026467902248246696 -0.0075092996589227667 -0.016569440800880793 0.016238926071489936 -0.0076724932385603562 -0.014746070601791797 0.0064358042626604913 0.016662400299772905 -0.013631757991623292 0.011353061654644947 -0.0045410944929432052 0.021350547424636573 -0.010602838768288035 0.0059230043442656021 0.024381092354690721 0.0017020696871713221 0.008128252900802331
leaf_count=207 134 120 124 122 139 131 179 144 220 160 122 133 204 146 114 191 133 132 113
internal_value=0 0.0207507 -0.0445137 -0.0818469 0.0452822 -0.0326118 0.0311865 -0.0346981 0.0130313 0.067213 0.0538886 0.07481 0.101114 0.0623322 0.0143025 0.127132 0.178341 -0.0417794 0.131255
internal_count=2968 2761 744 610 2017 449 310 486 342 1568 1295 1173 807 541 366 337 266 246 273
shrinkage=0.1


Tree=39
num_leaves=19
num_cat=0
split_feature=1 1 1 1 1 1 1 1 1 1 1 1 1 1 1 1 1 1
split_gain=15.0103 2.07286 1.84036 0.709623 0.813429 0.343786 0.94497 0.268947 0.422122 0.357881 0.254354 0.15848 0.491391 0.401303 0.260215 0.222573 0.119653 0.0126564
threshold=0.60689534832993797 0.50487933502765114 0.67722752841644762 0.62391874375871692 0.64997266840337231 0.72436523437500011 0.70922851562500011 0.55171362021369363 0.53370787637357753 0.58705060001504517 0.78051757812500011 0.40179469916513638 0.45748458539304487 0.34355467831179459 0.21550030034804041 0.43373071795143509 0.74975585937500011 0.29018784421948324
decision_type=2 2 2 2 2 2 2 2 2 2 2 2 2 2 2 2 2 2
left_child=1 11 3 -2 -5 6 -4 8 -3 -9 16 13 15 14 -1 -13 -7 -16
right_child=2 7 5 4 -6 10 -8 9 -10 -11 -12 12 -14 -15 17 -17 -18 -19
leaf_value=0.026683269582834974 -0.022692579581065901 0.0067229626803516802 -0.029110463777422768 0.0067378267907063256 -0.013355134886785384 -0.030443919395600594 -0.0032301764396289569 0.012936626590161447 -0.010207540085546809 -0.00073169888177419817 -0.02341305971405085 0.016709234478884331 0.024785266774974252 0.032612584330410553 0.016000690010354118 0.0031471699470502369 -0.041123511195271925 0.012429772041089889
leaf_count=132 117 148 212 164 213 170 112 232 114 124 174 120 241 168 121 132 142 132
internal_value=0 0.136217 -0.186617 -0.0886111 -0.0413064 -0.261982 -0.207551 0.044781 -0.00651984 0.0812639 -0.307615 0.202782 0.172422 0.229922 0.189116 0.102352 -0.35435 0.142655
internal_count=2968 1664 1304 494 377 810 324 618 262 356 486 1046 493 553 385 252 312 253
shrinkage=0.1


Tree=40
num_leaves=19
num_cat=0
split_feature=0 0 0 0 0 0 0 0 0 0 0 0 0 0 0 0 0 0
split_gain=3.81063 1.2356 0.464199 0.698735 0.676793 0.585722 0.805448 0.443372 0.889161 0.43598 0.747636 0.440497 0.770665 0.394365 0.327107 0.692977 0.17074 0.325763
threshold=9039.2567669180098 13513.500000000002 22020.750000000004 15671.585156602405 23753.17136045235 24685.46789898472 25967.354686696282 18243.989141760623 20652.988980644532 26886.784636708315 31178.250000000004 33385.500000000007 36871.470363269087 11558.685002433847 42963.750000000007 47837.896096760152 28205.305657881258 29341.562358726216
decision_type=2 2 2 2 2 2 2 2 2 2 2 2 2 2 2 2 2 2
left_child=-1 13 3 -3 -4 -6 -7 -5 -9 -8 16 -12 -13 -2 -14 -16 -11 -18
right_child=1 2 4 7 5 6 9 8 -10 10 11 12 14 -15 15 -17 17 -19
leaf_value=-0.047267772143834985 -0.0044671274753539511 0.011640060843439106 0.018659182152440723 -0.012784546636999045 -0.01188550635051088 0.020267757105498063 -0.0094002879078753515 0.0078299747985673424 -0.014734064031173067 0.019228086389101187 -0.009563942103437648 0.014899694317914221 -0.0081765257411652286 -0.022454694162291219 0.015058025942714014 -0.0065470125707002965 6.2254146432496395e-05 0.015456113961736446
leaf_count=122 121 146 169 232 111 146 127 241 137 121 166 197 215 125 131 179 113 169
internal_value=0 0.0135133 0.0277851 -0.0184828 0.047039 0.0338452 0.0452418 -0.0522749 -0.00439441 0.0288837 0.0413808 0.00502824 0.0297231 -0.138368 -0.0156782 0.0322735 0.121248 0.0911002
internal_count=2968 2846 2600 756 1844 1675 1564 610 378 1418 1291 888 722 246 525 310 403 282
shrinkage=0.1


Tree=41
num_leaves=19
num_cat=0
split_feature=1 1 1 1 1 1 1 1 1 1 1 1 1 1 1 1 1 1
split_gain=12.6858 2.56582 0.921584 0.372445 0.398274 0.350279 0.701296 0.889367 0.402035 0.342196 0.399796 0.304715 0.236496 0.226695 0.167302 0.235688 0.238922 0.163927
threshold=0.63458496410700294 0.54043129886042618 0.70403734482629099 0.61793163429639997 0.58705060001504517 0.44286536269688809 0.41479492187500006 0.37554108728080976 0.26456984251308929 0.65772653661364255 0.67722752841644762 0.32745997054989684 0.47011532040894671 0.50487933502765114 0.79882812500000011 0.75498459996151546 0.72693940453868888 0.56743224705938788
decision_type=2 2 2 2 2 2 2 2 2 2 2 2 2 2 2 2 2 2
left_child=1 5 9 4 17 6 7 8 -1 -2 -11 -10 -7 -14 15 16 -4 -3
right_child=2 3 14 -5 -6 12 -8 -9 11 10 -12 -13 13 -15 -16 -17 -18 -19
leaf_value=0.014113128318267774 -0.021095551818136847 -0.001814970365493237 -0.022361991987360719 0.010835751972718521 -0.009420080325226371 0.0035379889948211653 0.036197854010649087 0.00022342376646866202 0.034947167552140557 -0.00016657125353718665 -0.016087042922118721 0.019071741765903556 0.021001023308848815 0.010179780733422794 -0.035438410468369395 -0.017105465570438509 -0.035414671483268316 0.0077955074507726737
leaf_count=192 165 176 169 112 196 132 120 120 157 145 165 132 193 184 112 177 187 134
internal_value=0 0.107239 -0.201787 0.00230356 -0.0219289 0.171253 0.204353 0.171458 0.217937 -0.132426 -0.0882186 0.277516 0.126319 0.152153 -0.267274 -0.24796 -0.284331 0.0247546
internal_count=2968 1848 1120 618 506 1230 721 601 481 475 310 289 509 377 645 533 356 310
shrinkage=0.1


Tree=42
num_leaves=18
num_cat=0
split_feature=0 0 0 0 0 0 0 0 0 0 0 0 0 0 0 0 0
split_gain=3.35708 0.758882 0.943766 0.975964 0.524362 0.512592 0.583959 0.9727 0.418178 0.725908 0.483855 0.600408 0.540003 0.469364 0.410193 0.39341 0.324928
threshold=11054.250000000002 20260.505278616769 13444.979034664631 14892.339500454751 16944.629049071762 42067.942714776604 37824.750000000007 35264.989841640607 30543.945091831778 31905.000000000004 28477.11360242634 26450.846430897433 24747.750000000004 23362.821877581813 18336.529831544602 46410.643697580868 21644.050666920994
decision_type=2 2 2 2 2 2 2 2 2 2 2 2 2 2 2 2 2
left_child=-1 2 -2 -4 -5 6 7 8 10 -10 11 12 13 16 -6 -7 -3
right_child=1 5 3 4 14 15 -8 -9 9 -11 -12 -13 -14 -15 -16 -17 -18
leaf_value=-0.031253075564584912 0.012571768484404651 0.01127452446944481 -0.025515645335813852 0.0063250713961882105 -0.018908873359691686 -0.013210673057506922 0.019288616078910897 -0.012978851914971907 0.027032217602864395 0.0049239433110580934 -0.0055679731351550854 0.01726452916776838 -0.006284523045698597 0.017315210628090834 -0.0023745895728205261 0.0025303813229715657 -0.0037722440900481193
leaf_count=207 134 120 124 171 123 131 142 146 122 194 204 198 206 159 192 209 186
internal_value=0 0.0182512 -0.0423136 -0.0796365 -0.0344137 0.0410468 0.056885 0.0440129 0.0623289 0.133964 0.0411705 0.0645623 0.0322251 0.0750653 -0.0891575 -0.039966 0.0226477
internal_count=2968 2761 744 610 486 2017 1677 1535 1389 316 1073 869 671 465 315 340 306
shrinkage=0.1


Tree=43
num_leaves=20
num_cat=0
split_feature=1 1 1 1 1 1 1 1 1 1 1 1 1 1 1 1 1 1 1
split_gain=10.4016 1.44918 1.3712 0.428122 0.956871 0.426663 0.262299 0.318602 0.282443 0.16543 0.449407 0.388143 0.272155 0.242172 0.136003 0.193263 0.209684 0.0485792 0.0244668
threshold=0.60689534832993797 0.50487933502765114 0.70403734482629099 0.62391874375871692 0.64997266840337231 0.68368468501073665 0.55171362021369363 0.53370787637357753 0.57397460937500011 0.40179469916513638 0.43848424394644353 0.34355467831179459 0.20509977213853089 0.47481624889381796 0.79882812500000011 0.75498459996151546 0.72693940453868888 0.66625976562500011 0.29018784421948324
decision_type=2 2 2 2 2 2 2 2 2 2 2 2 2 2 2 2 2 2 2
left_child=1 9 3 -2 -5 17 7 -3 -8 11 -11 12 -1 -12 15 16 -4 -6 -14
right_child=2 6 14 4 5 -7 8 -9 -10 10 13 -13 18 -15 -16 -17 -18 -19 -20
leaf_value=0.024390078723740417 -0.020512583055801104 0.0051245638425495618 -0.020345827411377165 0.0066142629478663341 -0.021285531594541503 -0.0027535305098973159 0.01464782001588491 -0.0096096091976576575 0.0027265280325895628 0.0037414273638829727 0.025213938019361667 0.029402847254926812 0.013500147345081107 0.012655325907105691 -0.032408138634325824 -0.015724885364840829 -0.032668253970223077 -0.01488008985873132 0.0088345941620788949
leaf_count=120 117 148 169 164 132 127 141 114 215 144 180 168 133 169 112 177 187 119 132
internal_value=0 0.113974 -0.156844 -0.093049 -0.0660961 -0.129093 0.037634 -0.0131285 0.0737186 0.170428 0.139286 0.198359 0.157989 0.187437 -0.244652 -0.227148 -0.260432 -0.183182 0.113381
internal_count=2968 1664 1304 659 542 378 618 262 356 1046 493 553 385 349 645 533 356 251 265
shrinkage=0.1


Tree=44
num_leaves=20
num_cat=0
split_feature=0 0 0 0 0 0 0 0 0 0 0 0 0 0 0 0 0 0 0
split_gain=2.973 1.01123 0.40662 0.395138 0.633237 0.610273 0.645349 0.814052 0.362139 0.378208 0.759511 0.801846 0.856123 0.519803 0.751339 0.715343 0.336838 0.617156 0.365367
threshold=9039.2567669180098 13513.500000000002 11558.685002433847 22020.750000000004 15671.585156602405 23753.17136045235 24685.46789898472 26184.112808992493 52346.250000000007 28002.022679262747 29604.629148247575 30727.154539620857 32539.500000000004 42963.750000000007 38715.802476601319 34995.080245133453 17169.34285543059 20652.988980644532 19467.584650778004
decision_type=2 2 2 2 2 2 2 2 2 2 2 2 2 2 2 2 2 2 2
left_child=-1 2 -2 4 -3 -5 -7 -8 9 -9 -11 -12 -13 14 15 -14 -6 18 -18
right_child=1 3 -4 5 16 6 7 8 -10 10 11 12 13 -15 -16 -17 17 -19 -20
leaf_value=-0.042585590424770281 -0.0030638791857455199 0.011105538658126466 -0.021450531035961427 0.017634792425255091 -0.014206001217834469 -0.013095786743960109 0.01839931916690216 -0.0054526388059663701 -0.010143790883790645 0.0199883374698865 -0.014804281894399649 0.020884034283108279 -0.0083211793277119268 0.011667953403104326 -0.015815930955853773 0.012856335781283168 -0.0029351020506067273 -0.014619142330353017 0.012434878751460231
leaf_count=122 121 146 125 169 147 111 179 204 118 146 113 144 139 192 139 190 194 137 132
internal_value=0 0.0118856 -0.126496 0.0248767 -0.0180709 0.0427675 0.0301705 0.0422302 0.0236244 0.0342178 0.0511283 0.0269792 0.0521078 0.017814 -0.0223463 0.0370058 -0.0504615 -0.0200452 0.0337011
internal_count=2968 2846 246 2600 756 1844 1675 1564 1385 1267 1063 917 804 660 468 329 610 463 326
shrinkage=0.1


Tree=45
num_leaves=20
num_cat=0
split_feature=1 1 1 1 1 1 1 1 1 1 1 1 1 1 1 1 1 1 1
split_gain=8.86578 1.9859 0.448324 0.603323 0.779655 0.377976 0.311945 0.281599 0.762391 0.641132 0.265932 0.975775 0.230323 0.385196 0.421422 0.1961 0.240436 0.104025 0.0932824
threshold=0.56132295608692673 0.67722752841644762 0.44286536269688809 0.41479492187500006 0.37554108728080976 0.26456984251308929 0.32745997054989684 0.63458496410700294 0.60157379422516633 0.65772653661364255 0.69659847280753595 0.71330541897387711 0.73409423614598357 0.75822041489753034 0.78527825923976258 0.47011532040894671 0.50487933502765114 0.53188606723372855 0.57941752701435523
decision_type=2 2 2 2 2 2 2 2 2 2 2 2 2 2 2 2 2 2 2
left_child=2 7 3 4 5 -1 -7 8 18 -9 -3 -12 -13 -14 -15 -4 -17 -18 -2
right_child=1 10 15 -5 -6 6 -8 9 -10 -11 11 12 13 14 -16 16 17 -19 -20
leaf_value=0.011413346557918164 -0.013131699672869391 -0.029844925830945154 0.00067214868623327736 0.032329306175713543 -0.0014223489712047103 0.032093663881334888 0.015893208324682842 -0.018762431655170313 0.0074894628221490039 0.001339291523357127 -0.0013441922223784257 -0.032798086303895378 -0.0096528985492857194 -0.038186390723362378 -0.017793114963510551 0.017754976418120658 0.0032405927009094039 0.010934653289148909 -0.0053236890695922143
leaf_count=192 118 121 132 120 120 157 132 165 220 145 133 129 156 115 156 193 135 187 142
internal_value=0 -0.113797 0.134871 0.175488 0.144797 0.188885 0.24741 -0.0442243 -0.0143704 -0.0972491 -0.204794 -0.183477 -0.235193 -0.205175 -0.260439 0.092906 0.110409 0.0770899 -0.089233
internal_count=2968 1600 1368 721 601 481 289 790 480 310 810 689 556 427 271 647 515 322 260
shrinkage=0.1


Tree=46
num_leaves=21
num_cat=0
split_feature=0 0 0 0 0 0 0 0 0 0 0 0 0 0 0 0 0 0 0 0
split_gain=2.58372 0.662974 0.752833 0.72493 1.14294 0.441969 0.535121 0.488155 0.31197 0.309286 0.633137 0.655769 0.676625 0.430515 0.622758 0.344458 0.21769 0.362439 0.158373 0.0506761
threshold=11054.250000000002 23945.612293999726 26184.112808992493 13444.979034664631 15269.140341247472 16944.629049071762 18336.529831544602 19779.83409827112 52346.250000000007 28002.022679262747 29604.629148247575 30727.154539620857 32539.500000000004 37824.750000000007 42067.942714776604 35264.989841640607 20902.91893685886 22379.757037437495 25081.460491016802 45641.011925870553
decision_type=2 2 2 2 2 2 2 2 2 2 2 2 2 2 2 2 2 2 2 2
left_child=-1 3 18 -2 -5 -6 -7 -8 9 -4 -11 -12 -13 15 -15 -14 -9 -18 -3 -16
right_child=1 2 8 4 5 6 7 16 -10 10 11 12 13 14 19 -17 17 -19 -20 -21
leaf_value=-0.027774808465716439 0.012657918945235994 0.0098648411279553903 -0.0047368973472181435 -0.022694674199471125 0.0095588197005689619 -0.017260417321247688 0.011184777495074428 -0.01276835679127138 -0.0093268260574068951 0.018466797926765404 -0.013223068042342093 0.01889189476333333 0.0030481535213154167 0.018508257906435979 -0.0038134250746610712 -0.012317559454798335 0.0064758836646882992 -0.009292188537180222 0.020809955834165967 0.0030072632870957205
leaf_count=207 134 133 204 149 146 123 132 120 118 146 113 144 150 142 111 146 149 157 133 111
internal_value=0 0.0160106 0.0446277 -0.0266408 -0.0483129 -0.0148345 -0.0396574 -0.00906427 0.0232402 0.0330902 0.0484254 0.0263246 0.04913 0.0185695 0.0703121 -0.0453121 -0.0467228 -0.0137972 0.15297 -0.0050959
internal_count=2968 2761 1651 1110 976 827 681 558 1385 1267 1063 917 804 660 364 296 426 306 266 222
shrinkage=0.1


Tree=47
num_leaves=20
num_cat=0
split_feature=1 1 1 1 1 1 1 1 1 1 1 1 1 1 1 1 1 1 1
split_gain=7.36346 1.04101 1.01578 0.47615 0.459302 0.711862 0.391496 0.258146 0.372365 0.304569 0.376981 0.540957 0.283009 0.122873 0.193736 0.207695 0.0430664 0.0261517 0.0158806
threshold=0.60689534832993797 0.54043129886042618 0.69997734250180932 0.57521161412674671 0.62391874375871692 0.64997266840337231 0.67407226562500011 0.40179469916513638 0.34355467831179459 0.43848424394644353 0.47481624889381796 0.49748972931195373 0.20509977213853089 0.79882812500000011 0.75498459996151546 0.72693940453868888 0.51954732809132909 0.29018784421948324 0.55731918587550122
decision_type=2 2 2 2 2 2 2 2 2 2 2 2 2 2 2 2 2 2 2
left_child=1 7 4 18 -2 -6 -7 8 12 -9 -11 -12 -1 14 15 -4 -13 -14 -3
right_child=2 3 13 -5 5 6 -8 9 -10 10 11 16 17 -15 -16 -17 -18 -19 -20
leaf_value=0.021993217783712434 -0.019179833230747068 -0.0035915443152060981 -0.017144930401491013 0.0083219555681585313 0.0066049603417485938 -0.017313757041785085 -0.0025867052816535493 0.0013694824284951348 0.026623736272368661 0.022512088139262115 -0.0039868307921572697 0.011726605733134894 0.010835663580995025 -0.028357926656445143 -0.011961191792580034 -0.029143376752349993 0.017644321607547361 0.0060250425533409421 -0.0070954082892255958
leaf_count=120 117 114 191 203 164 191 165 144 168 180 120 122 133 112 177 187 111 132 117
internal_value=0 0.0963388 -0.132986 0.0114406 -0.0760911 -0.0470176 -0.104478 0.133198 0.171625 0.104039 0.129564 0.0910647 0.13187 -0.206951 -0.191014 -0.222532 0.147133 0.0860212 -0.0542857
internal_count=2968 1664 1304 434 637 520 356 1230 553 677 533 353 385 667 555 378 233 265 231
shrinkage=0.1


Tree=48
num_leaves=19
num_cat=0
split_feature=0 0 0 0 0 0 0 0 0 0 0 0 0 0 0 0 0 0
split_gain=2.32065 0.833511 0.462457 0.776708 0.637749 0.382542 0.744942 0.565545 0.388294 1.01206 0.457074 0.579943 0.361061 0.336449 0.409392 0.259755 0.228014 0.0744271
threshold=9039.2567669180098 20260.505278616769 13021.810106458846 15269.140341247472 18869.243188571167 38715.802476601319 42963.750000000007 47837.896096760152 33385.500000000007 31178.250000000004 26450.846430897433 24747.750000000004 23362.821877581813 27700.276354493442 29341.562358726216 21644.050666920994 17169.34285543059 36292.333591769151
decision_type=2 2 2 2 2 2 2 2 2 2 2 2 2 2 2 2 2 2
left_child=-1 2 -2 -4 16 8 -7 -8 9 10 11 12 15 -12 -15 -3 -5 -10
right_child=1 5 3 4 -6 6 7 -9 17 -11 13 -13 -14 14 -16 -17 -18 -19
leaf_value=-0.038291731289197543 0.0047350379803505994 0.010246051838522743 -0.020522983491399738 -0.0027442017600978509 -0.015341826314061557 -0.015726962535003101 0.014876310277881846 -0.0048705353778917947 0.016225324159211626 -0.012413758073105578 0.020660992776697824 -0.0076725207250294553 0.015428595929203813 -0.0011427735467329811 0.015153989874118033 -0.0033258786073926427 0.0093915038417885701 0.0085117609490729211
leaf_count=122 195 120 173 171 144 139 131 179 160 166 143 206 159 146 169 186 146 113
internal_value=0 0.0104456 -0.0494579 -0.0785844 -0.0298772 0.0354517 -0.0233406 0.0409967 0.0520224 0.0358074 0.0607155 0.0228106 0.0675514 0.115631 0.0742144 0.0211612 0.0267344 0.130307
internal_count=2968 2846 829 634 461 2017 449 310 1568 1295 1129 671 465 458 315 306 317 273
shrinkage=0.1


Tree=49
num_leaves=20
num_cat=0
split_feature=1 1 1 1 1 1 1 1 1 1 1 1 1 1 1 1 1 1 1
split_gain=6.24014 1.40925 0.490319 0.865834 0.392391 0.47408 0.687281 0.355786 0.530475 0.677184 0.337265 0.319214 0.224172 0.218007 0.194639 0.366846 0.425386 0.118528 0.055178
threshold=0.56132295608692673 0.67168552354136446 0.68969726562500011 0.71330541897387711 0.64273063292849486 0.62083780898488661 0.60157379422516633 0.44286536269688809 0.41479492187500006 0.37554108728080976 0.26456984251308929 0.32745997054989684 0.47011532040894671 0.50487933502765114 0.73409423614598357 0.74975585937500011 0.78051757812500011 0.53913152059579805 0.57941752701435523
decision_type=2 2 2 2 2 2 2 2 2 2 2 2 2 2 2 2 2 2 2
left_child=7 4 -3 -4 5 6 18 8 9 10 -1 -12 -9 -14 -5 -16 -17 -15 -2
right_child=1 2 3 14 -6 -7 -8 12 -10 -11 11 -13 13 17 15 16 -18 -19 -20
leaf_value=0.0092279321358795102 -0.011825203171547399 -0.029771351209402455 -0.0010860527677398067 -0.028442499948961104 0.0048471539650297669 -0.016561721590341406 0.0097860780185162824 -0.0016330520705929545 0.029036599670253557 -0.0027150667826819647 0.029420227131063209 0.012891392338635028 0.015952869336057815 0.0025818012231894755 -0.0033172415860817095 -0.032444983871216117 -0.013268794556229108 0.010726382345401129 -0.0057998974522156061
leaf_count=192 118 122 179 129 211 142 130 132 120 120 157 132 193 172 111 142 174 150 142
internal_value=0 -0.0959365 -0.168974 -0.14206 -0.033761 -0.0621723 -0.0254096 0.113905 0.150448 0.121508 0.163101 0.21911 0.0764428 0.0951683 -0.197885 -0.170095 -0.212683 0.063456 -0.0858224
internal_count=2968 1600 857 735 743 532 390 1368 721 601 481 289 647 515 556 427 316 322 260
shrinkage=0.1


Tree=50
num_leaves=20
num_cat=0
split_feature=0 0 0 0 0 0 0 0 0 0 0 0 0 0 0 0 0 0 0
split_gain=2.18388 0.656778 0.354854 0.344187 0.841385 0.265562 0.231447 0.560632 0.472708 0.362477 0.600413 0.296473 0.820632 0.50517 0.420661 0.643575 0.182587 0.0882782 0.0382228
threshold=13513.500000000002 9039.2567669180098 11558.685002433847 15671.585156602405 18243.989141760623 52346.250000000007 23945.612293999726 24969.436749382014 19779.83409827112 26450.846430897433 27700.276354493442 30543.945091831778 31905.000000000004 33514.599345405259 36871.470363269087 42963.750000000007 22020.750000000004 29214.924869956052 20902.91893685886
decision_type=2 2 2 2 2 2 2 2 2 2 2 2 2 2 2 2 2 2 2
left_child=1 -1 -3 -2 -5 6 8 -8 -6 -9 -11 17 -13 -14 -15 -16 18 -12 -10
right_child=3 2 -4 4 5 -7 7 9 16 10 11 12 13 14 15 -17 -18 -19 -20
leaf_value=-0.03581621174855544 0.012552965321002009 -0.0027909581422118314 -0.020116057139955346 -0.011276610051942464 0.010807762126739494 -0.0080996309490327188 0.019311382950601187 -0.005764427438517794 -0.011398369156059678 0.018802962064152558 0.00054108798183006375 0.022560576708706225 -0.011341195166778664 0.013988096349952654 -0.0075304281846787407 0.010503093347216828 0.00099641226134860607 -0.0077337027486773999 -0.0055410783329409219
leaf_count=122 146 121 125 232 145 118 122 183 120 143 135 122 111 186 215 192 193 124 113
internal_value=0 -0.176542 -0.118287 0.0216234 0.0150767 0.0288872 0.0345016 0.048766 -0.00514868 0.0358435 0.0498641 0.031765 0.0528912 0.0233757 0.0501685 0.00945332 -0.0436431 -0.0341963 -0.0857104
internal_count=2968 368 246 2600 2454 2222 2104 1533 571 1411 1228 1085 826 704 593 407 426 259 233
shrinkage=0.1


Tree=51
num_leaves=19
num_cat=0
split_feature=1 1 1 1 1 1 1 1 1 1 1 1 1 1 1 1 1 1
split_gain=5.31265 1.08999 0.545301 0.546512 0.628854 0.416146 0.34869 0.280755 0.179932 0.174077 0.526702 0.478603 0.60796 0.381443 0.150775 0.120035 0.27674 0.306958
threshold=0.63458496410700294 0.52438869256965681 0.55171362021369363 0.58705060001504517 0.61793163429639997 0.70403734482629099 0.65772653661364255 0.67722752841644762 0.20509977213853089 0.49748972931195373 0.47481624889381796 0.42244554935272743 0.37554108728080976 0.31611121962482253 0.44747703010368961 0.78051757812500011 0.73706054687500011 0.71851967732572763
decision_type=2 2 2 2 2 2 2 2 2 2 2 2 2 2 2 2 2 2
left_child=1 8 -3 -4 -5 6 -2 -8 -1 10 11 12 13 -10 -13 16 17 -7
right_child=5 2 3 4 -6 15 7 -9 9 -11 -12 14 -14 -15 -16 -17 -18 -19
leaf_value=0.019989905948884459 -0.016692766781491099 -0.0097052396059215604 0.011663609404813013 -0.0087241982355620463 0.010543980516013881 -0.022203414491036237 0.0030844536608007288 -0.010382335937755021 0.0060403487577220735 0.017556166835691087 -0.0050169994603353786 0.026336528079981738 -0.0045181056940687614 0.021959243973177278 0.01432353286172134 -0.012308799322447475 -0.027367624818760646 -0.0045381536020321477
leaf_count=120 165 165 232 196 112 129 145 165 193 146 120 120 144 168 132 174 222 120
internal_value=0 0.0699085 0.00881006 0.0402287 -0.0163357 -0.13361 -0.0869816 -0.0419777 0.117785 0.107172 0.0933013 0.11708 0.0753543 0.131608 0.204045 -0.179414 -0.201481 -0.14645
internal_count=2968 1848 705 540 308 1120 475 310 1143 1023 877 757 505 361 252 645 471 249
shrinkage=0.1


Tree=52
num_leaves=20
num_cat=0
split_feature=0 0 0 0 0 0 0 0 0 0 0 0 0 0 0 0 0 0 0
split_gain=1.95196 0.405295 0.656136 0.863289 0.768224 0.63271 0.808354 0.703263 0.339028 0.332075 1.05312 0.228817 0.612219 0.554324 0.608712 0.559334 0.423554 0.0745646 0.00245867
threshold=11839.188018069975 22020.750000000004 23753.17136045235 25432.985879161188 27273.254247623478 14253.08771161305 16425.000000000004 17693.91185481325 9039.2567669180098 20652.988980644532 19467.584650778004 28969.381725520721 31178.250000000004 33385.500000000007 38715.802476601319 42963.750000000007 47837.896096760152 36041.156777409335 26325.226775814099
decision_type=2 2 2 2 2 2 2 2 2 2 2 2 2 2 2 2 2 2 2
left_child=8 5 -3 -4 18 -2 -7 -8 -1 10 -9 -6 -13 -14 17 -16 -17 -15 -5
right_child=1 2 3 4 11 6 7 9 -10 -11 -12 12 13 14 15 16 -18 -19 -20
leaf_value=-0.033341962940758203 0.010176383330292117 0.017517597425292946 -0.011913218197908667 0.014839550430749943 -0.0065367135592748942 -0.019354311066308059 0.013755391209830145 -0.013870610953450697 -0.014160523708927734 -0.01477738938431093 0.013704157276454992 0.013974597445729434 -0.011109204197425438 0.0081568523852273388 -0.013691537156702918 0.01292606681731516 -0.0042372854442775786 0.015822883787667882 0.016907672870041843
leaf_count=122 162 169 191 124 146 158 122 158 133 137 132 213 166 149 139 131 179 124 113
internal_value=0 0.0160509 0.0352573 0.0220667 0.0408575 -0.0240589 -0.0535482 -0.0117225 -0.213363 -0.0559385 -0.0119153 0.0181147 0.0294924 0.00328538 0.0315586 -0.0202923 0.0356921 0.116947 0.158569
internal_count=2968 2713 1844 1675 1484 869 707 549 255 427 290 1247 1101 888 722 449 310 273 237
shrinkage=0.1


Tree=53
num_leaves=19
num_cat=0
split_feature=1 1 1 1 1 1 1 1 1 1 1 1 1 1 1 1 1 1
split_gain=4.52716 1.00018 0.272016 0.38613 0.52516 0.574881 0.258849 0.342796 0.318587 0.226632 0.690117 0.315735 0.198325 0.196982 0.131603 0.199555 0.17562 0.0719576
threshold=0.56132295608692673 0.69997734250180932 0.40179469916513638 0.34801550595670744 0.29808371220555613 0.23659456999366504 0.43848424394644353 0.47751067022304355 0.50837682295381559 0.63458496410700294 0.60157379422516633 0.67407226562500011 0.65649414062500011 0.54043129886042618 0.79882812500000011 0.75498459996151546 0.72693940453868888 0.57941752701435523
decision_type=2 2 2 2 2 2 2 2 2 2 2 2 2 2 2 2 2 2
left_child=2 9 3 4 5 -1 -4 -8 -9 10 17 12 -11 -10 15 16 -3 -2
right_child=1 14 6 -5 -6 -7 7 8 13 11 -12 -13 -14 -15 -16 -17 -18 -19
leaf_value=0.0065286541424223118 -0.012028426095765472 -0.013169795360624723 -0.0013864931958875849 0.024141930917339963 -0.0040691447232771251 0.028040892985448207 0.018387986740362416 -0.0014893296700264191 0.0152788972363789 -0.0069808401187898498 0.0073300336308000109 -0.00010218388949821797 -0.018667299310240661 0.0043312305214647066 -0.02429941137119181 -0.0073144576930654131 -0.024352350497371517 -0.0051523338632004706
leaf_count=156 118 191 144 156 120 121 192 181 160 153 220 165 135 138 112 177 187 142
internal_value=0 -0.082036 0.0976165 0.139266 0.100305 0.152819 0.0721932 0.0909458 0.0628327 -0.0418786 -0.0118895 -0.0786133 -0.122615 0.103306 -0.163059 -0.146466 -0.178834 -0.0832476
internal_count=2968 1600 1368 553 397 277 815 671 479 933 480 453 288 298 667 555 378 260
shrinkage=0.1


Tree=54
num_leaves=20
num_cat=0
split_feature=0 0 0 0 0 0 0 0 0 0 0 0 0 0 0 0 0 0 0
split_gain=1.69681 0.468021 0.371017 0.298259 0.71903 0.259042 0.745652 0.754625 0.479566 0.428106 0.397604 0.304246 0.434769 0.587796 0.739543 0.425626 0.317848 0.241782 0.00133276
threshold=13513.500000000002 9039.2567669180098 11558.685002433847 15671.585156602405 18094.500000000004 42067.942714776604 37824.750000000007 35264.989841640607 46410.643697580868 30543.945091831778 32539.500000000004 28876.500000000004 25432.985879161188 23753.17136045235 22513.500000000004 20652.988980644532 27273.254247623478 19467.584650778004 26325.226775814099
decision_type=2 2 2 2 2 2 2 2 2 2 2 2 2 2 2 2 2 2 2
left_child=1 -1 -3 -2 -5 6 7 9 -7 11 -11 12 13 14 15 17 18 -6 -14
right_child=3 2 -4 4 5 8 -8 -9 -10 10 -12 -13 16 -15 -16 -17 -18 -19 -20
leaf_value=-0.031321257288131746 0.011623288278892656 -0.0015048665127151853 -0.019288382360211118 -0.010900115337236879 -0.0017397374638960809 -0.013673492098162163 0.019240332164089685 -0.013389606489639595 0.0039708495908497669 0.018896303727953843 0.0027082071226488353 -0.0070821329459597867 0.013670577087292628 -0.010624594355278433 0.020640439053386792 -0.0085701336988495691 0.00077390990806167331 0.012489622430960664 0.015395712026904821
leaf_count=122 146 121 125 220 121 131 142 146 209 166 150 168 124 191 120 186 135 132 113
internal_value=0 -0.156777 -0.107836 0.0191218 0.0129966 0.025478 0.035719 0.0226741 -0.0335535 0.036963 0.112077 0.0185076 0.0322225 0.000126942 0.0388438 -0.00333194 0.0951721 0.0583352 0.145217
internal_count=2968 368 246 2600 2454 2234 1894 1752 340 1606 316 1290 1122 750 559 439 372 253 237
shrinkage=0.1


Tree=55
num_leaves=20
num_cat=0
split_feature=1 1 1 1 1 1 1 1 1 1 1 1 1 1 1 1 1 1 1
split_gain=3.80235 0.554195 0.480795 0.560626 0.553084 0.417599 0.496143 0.351296 0.286292 0.336118 0.174684 0.381886 0.448835 0.260288 0.192152 0.10506 0.17948 0.217471 0.124551
threshold=0.60689534832993797 0.44286536269688809 0.69997734250180932 0.62391874375871692 0.64997266840337231 0.41479492187500006 0.37554108728080976 0.67407226562500011 0.26456984251308929 0.32745997054989684 0.47011532040894671 0.50487933502765114 0.55171362021369363 0.58705060001504517 0.53370787637357753 0.79882812500000011 0.73409423614598357 0.74975585937500011 0.71330541897387711
decision_type=2 2 2 2 2 2 2 2 2 2 2 2 2 2 2 2 2 2 2
left_child=1 5 3 -2 -5 6 8 -6 -1 -10 -3 -12 14 -14 -13 16 18 -18 -4
right_child=2 10 15 4 7 -7 -8 -9 9 -11 11 12 13 -15 -16 -17 17 -19 -20
leaf_value=0.0065595390097076883 -0.018586234732816145 -0.0049154104177592563 -0.012756625951902559 0.0074575124183935181 -0.014206679200506471 0.024652197771246082 -0.0032591758315168163 -0.00016664821633351936 0.026160041238279565 0.0090034060195304817 0.014048267258739006 0.0007372326610040707 0.011246259331574814 -0.00047408307233356224 -0.010782385575035447 -0.022102046410950277 0.0010348713871241671 -0.01389995667818077 -0.024064493694023019
leaf_count=192 117 132 111 164 191 120 120 165 157 132 193 148 232 124 114 112 111 204 129
internal_value=0 0.0697932 -0.0967632 -0.0577203 -0.025361 0.120713 0.0948813 -0.0764816 0.131101 0.183581 0.0364467 0.0467645 0.0236348 0.0710184 -0.0432416 -0.149 -0.134142 -0.0897807 -0.18278
internal_count=2968 1664 1304 637 520 721 601 356 481 289 943 811 618 356 262 667 555 315 240
shrinkage=0.1


Tree=56
num_leaves=20
num_cat=0
split_feature=0 0 0 0 0 0 0 0 0 0 0 0 0 0 0 0 0 0 0
split_gain=1.5286 0.382021 0.709097 0.519087 0.736097 0.582735 0.433748 0.735362 0.539792 0.598533 0.289477 0.546289 0.234501 0.216135 0.79224 0.394246 0.30166 0.191987 0.150499
threshold=11839.188018069975 23945.612293999726 26184.112808992493 14253.08771161305 16425.000000000004 17693.91185481325 28002.022679262747 29604.629148247575 30727.154539620857 32539.500000000004 19467.584650778004 20484.936171483179 9039.2567669180098 37824.750000000007 42067.942714776604 46410.643697580868 35264.989841640607 22020.750000000004 25081.460491016802
decision_type=2 2 2 2 2 2 2 2 2 2 2 2 2 2 2 2 2 2 2
left_child=12 3 18 -2 -5 -6 -4 -8 -9 -10 -7 -12 -1 16 -15 -16 -11 -13 -3
right_child=1 2 6 4 5 10 7 8 9 13 11 17 -14 14 15 -17 -18 -19 -20
leaf_value=-0.029243674323116177 0.0097131895477995892 0.0088670006988864035 -0.0082300339527310914 -0.017935657187380095 0.013101612753279321 -0.012435368000236983 0.018128149685631787 -0.013647295729928018 0.016349523036066096 0.0026704925324903222 0.012034774060323737 -0.011949020285189967 -0.013087514538656234 0.01737514606218998 -0.012226949742307544 0.0037988252500184084 -0.011880442523321063 -0.00088175800834129408 0.019644400277267514
leaf_count=122 162 133 204 158 122 158 146 113 144 150 120 149 133 142 131 209 146 193 133
internal_value=0 0.0142206 0.035909 -0.0195401 -0.0413221 -0.0103209 0.0148951 0.0317055 0.00997168 0.0286061 -0.0396173 -0.0102919 -0.190521 0.00331066 0.0335465 -0.0285164 -0.0450104 -0.0584665 0.142175
internal_count=2968 2713 1651 1062 900 742 1385 1181 1035 922 620 462 255 778 482 340 296 342 266
shrinkage=0.1


Tree=57
num_leaves=21
num_cat=0
split_feature=1 1 1 1 1 1 1 1 1 1 1 1 1 1 1 1 1 1 1 1
split_gain=3.23721 0.728628 0.459592 1.43511 0.405794 0.434408 0.693677 0.248937 0.225315 0.134998 0.101921 0.446261 0.285508 0.377569 0.255257 0.143069 0.17245 0.0921955 0.0730795 0.032747
threshold=0.56132295608692673 0.67722752841644762 0.71204673037403121 0.73141294274643487 0.64273063292849486 0.62083780898488661 0.60157379422516633 0.78051757812500011 0.20509977213853089 0.74975585937500011 0.44286536269688809 0.41479492187500006 0.37554108728080976 0.31611121962482253 0.47011532040894671 0.50487933502765114 0.53188606723372855 0.69659847280753595 0.57941752701435523 0.65934267166987415
decision_type=2 2 2 2 2 2 2 2 2 2 2 2 2 2 2 2 2 2 2 2
left_child=8 4 17 -4 5 6 18 9 -1 -5 11 12 13 -10 -12 -16 -17 -3 -2 -6
right_child=1 2 3 7 19 -7 -8 -9 10 -11 14 -13 -14 -15 15 16 -18 -19 -20 -21
leaf_value=0.017647264158369581 -0.012165953646901121 -0.024801348241456921 0.016951803234987375 -0.014040907557658786 0.0071761029821625693 -0.015817806493853111 0.010068040149186833 -0.0078052144871567121 0.0028674453187330904 -0.02637527339190673 -0.0045593976955639708 0.02243894251916902 -0.0029433613786194971 0.018872447058501954 0.012718379349622916 -0.00091064121990220822 0.0090443142414168981 -0.015836213470310136 -0.0052304125742257436 0.0021426370832393509
leaf_count=120 118 121 116 134 124 142 130 174 193 142 132 120 120 168 193 135 187 123 142 134
internal_value=0 -0.0696234 -0.12663 -0.0807591 -0.0277126 -0.0587564 -0.0235246 -0.151014 0.0829534 -0.204946 0.0734696 0.0965475 0.0632174 0.100094 0.0543478 0.0744024 0.0487123 -0.204428 -0.0843119 0.046522
internal_count=2968 1600 810 566 790 532 390 450 1368 276 1248 601 481 361 647 515 322 244 260 258
shrinkage=0.1


Tree=58
num_leaves=20
num_cat=0
split_feature=0 0 0 0 0 0 0 0 0 0 0 0 0 0 0 0 0 0 0
split_gain=1.34492 0.315816 0.367249 0.268093 0.620888 0.232557 0.262609 0.846456 0.45255 0.775525 0.474889 0.32513 0.829862 0.845226 0.514715 0.524198 0.208856 0.119301 0.0691962
threshold=13513.500000000002 9039.2567669180098 11558.685002433847 15671.585156602405 18094.500000000004 52346.250000000007 42963.750000000007 38715.802476601319 33385.500000000007 31178.250000000004 28343.563936500777 26184.112808992493 24546.154381551634 23604.663051566535 22020.750000000004 19779.83409827112 29474.202101520397 20902.91893685886 36041.156777409335
decision_type=2 2 2 2 2 2 2 2 2 2 2 2 2 2 2 2 2 2 2
left_child=1 -1 -3 -2 -5 6 7 8 9 10 11 12 13 14 15 -6 -12 -17 -10
right_child=3 2 -4 4 5 -7 -8 -9 18 -11 16 -13 -14 -15 -16 17 -18 -19 -20
leaf_value=-0.02713744900748373 0.010941778578713342 -0.00077536768927416119 -0.018531975111700304 -0.010250761840898029 0.0094476383628293147 -0.0080837615914714049 0.010864051063333418 -0.014876996903835239 0.0085911903112361084 -0.012437714112170655 0.01956394355592854 -0.0061580874807959547 0.01670976575082701 -0.018277844917081253 0.014883691428660374 -0.012785649066905699 0.0067185234015707382 -0.0024249800607327905 0.016031154683454549
leaf_count=122 146 121 125 220 157 118 192 139 149 166 113 226 191 111 157 120 158 113 124
internal_value=0 -0.140513 -0.100467 0.0170485 0.0112199 0.0228629 0.0281309 0.0200662 0.0336795 0.0183262 0.0370888 0.0153365 0.0360381 -0.00332726 0.034694 -0.00940481 0.122431 -0.0776537 0.120242
internal_count=2968 368 246 2600 2454 2234 2116 1924 1785 1512 1346 1075 849 658 547 390 271 233 273
shrinkage=0.1


Tree=59
num_leaves=18
num_cat=0
split_feature=1 1 1 1 1 1 1 1 1 1 1 1 1 1 1 1 1
split_gain=2.75881 0.570205 0.434076 0.272339 0.216655 0.366388 0.236257 0.172786 0.54795 0.331018 0.328597 0.286875 0.369498 0.187893 0.124129 0.302519 0.418383
threshold=0.63458496410700294 0.54043129886042618 0.60157379422516633 0.56892839438104315 0.70403734482629099 0.65772653661364255 0.67722752841644762 0.32745997054989684 0.26943511125631764 0.42244554935272743 0.44747703010368961 0.50837682295381559 0.49003640297636408 0.37554108728080976 0.79394531250000011 0.75822041489753034 0.73409423614598357
decision_type=2 2 2 2 2 2 2 2 2 2 2 2 2 2 2 2 2
left_child=1 7 3 -3 5 -2 -7 8 -1 13 -11 12 -12 -9 15 16 -6
right_child=4 2 -4 -5 14 6 -8 9 -10 10 11 -13 -14 -15 -16 -17 -18
leaf_value=0.0054918525200651465 -0.014614911029839923 0.0019287126042086056 0.0074605143735533815 -0.0090155787605532348 -0.01771199833016833 0.0049628449358620347 -0.0074632848072925129 0.0068064526204857749 0.025036034338149844 0.020799595908015542 0.0092281374942770715 0.013849456422822818 -0.0071098096868351321 -0.0056966773512102421 -0.0059904179591805905 -0.025468895643355902 0.00028201736939897828
leaf_count=204 165 188 220 210 218 145 165 132 145 120 204 160 121 144 128 143 156
internal_value=0 0.0506208 0.00125658 -0.0400848 -0.0974857 -0.0638173 -0.0174152 0.0820629 0.127171 0.0649136 0.0944908 0.0689476 0.0245749 -0.00381867 -0.131265 -0.149636 -0.111277
internal_count=2968 1848 618 398 1120 475 310 1230 349 881 605 485 325 276 645 517 374
shrinkage=0.1


Tree=60
num_leaves=20
num_cat=0
split_feature=0 0 0 0 0 0 0 0 0 0 0 0 0 0 0 0 0 0 0
split_gain=1.19396 0.329379 0.728682 0.48609 0.633694 0.52375 0.416777 0.599977 0.272951 0.528514 0.215849 0.342898 0.523382 0.518868 0.287827 0.286265 0.164539 0.149315 0.055763
threshold=11839.188018069975 23945.612293999726 24969.436749382014 14253.08771161305 16425.000000000004 17693.91185481325 26450.846430897433 27700.276354493442 19467.584650778004 20652.988980644532 46113.750000000007 30543.945091831778 32539.500000000004 37824.750000000007 42067.942714776604 35264.989841640607 22379.757037437495 9039.2567669180098 29214.924869956052
decision_type=2 2 2 2 2 2 2 2 2 2 2 2 2 2 2 2 2 2 2
left_child=17 3 -3 -2 -5 -6 -4 -8 -7 -10 11 18 -13 15 -15 -14 -11 -1 -9
right_child=1 2 6 4 5 8 7 10 9 16 -12 12 13 14 -16 -17 -18 -19 -20
leaf_value=-0.025259337299037773 0.0094437322564531537 0.019910860680566855 -0.0082869113193354531 -0.016844613647726783 0.012333136983135826 -0.012154201929897223 0.017323646495625396 -0.00085245795996595096 0.01114128679467854 -0.0012647694716009495 -0.0051542871793899825 0.016887647201384953 0.0026475554709530424 0.016430363923539294 0.0014298697540670393 -0.011570443619531766 -0.011688408226183432 -0.012209630560588791 -0.0074941648643628957
leaf_count=122 162 122 183 158 122 158 143 135 132 173 219 166 150 142 121 146 157 133 124
internal_value=0 0.0125661 0.0327643 -0.0188911 -0.0400321 -0.0111527 0.0188802 0.0329246 -0.0390146 -0.0104301 0.0162256 0.0301214 0.0557052 0.0225346 0.0951272 -0.0435865 -0.0607515 -0.169674 -0.0403234
internal_count=2968 2713 1651 1062 900 742 1529 1346 620 462 1203 984 725 559 263 296 330 255 259
shrinkage=0.1


Tree=61
num_leaves=20
num_cat=0
split_feature=1 1 1 1 1 1 1 1 1 1 1 1 1 1 1 1 1 1 1
split_gain=2.36291 0.356775 0.451075 0.540122 0.475891 0.323226 0.913115 0.220102 0.415647 0.295513 0.521927 0.598587 0.236699 0.173733 0.305298 0.996785 0.416747 0.321965 0.092166
